/* Auto-generated by gen_weights_numpy.py — synthetic weights for simulation.
 * For real MNIST inference run: python3 tools/train_mnist.py --quantize
 */

#ifndef WEIGHTS_H
#define WEIGHTS_H

#include "nn.h"

/* Layer 0 (fc1): 128×784, scale=0.000638659 */
static const int8_t w0[] = {
      70, -16,  91,  50,-103, 121,  66,  73, -94, -13, -33, 108,  37,  82, -14, -69,
      14,-111,  83,  33,  66, -37, 120, 100,  71, -78,  -8,-116, -88,  46,  62, 119,
     -44, -33,  -8, -79, -94,  -6, -69,  43, -16,  85,  51, -48,  84,  77, -29, -54,
      46, -92, -76,-125,  73,  42,  52,  71, -10,  17, -91, -98,  43,  -7,  17,  67,
      34,  14,  15, -50,-119, -16, -72, -23,  90, -68,-112, -56, -52,  41,  14,  72,
      42, -24,  80, -85,-121,-104,  56, -10, -86,   0, -88,  50, -14, -30, -50,  33,
     -35,-105, -97, 117, 104,  51, -59, 119,  71,  55, -13, -58,-103, 102, -11, -76,
     -49,  20, -82,  91,  66,  56, -17,  32,  21,  38,-106, -21,-116,  -2, -43, -90,
    -101,  22, -84, 108,  21, -39,  23,-121, 116,  -4,  72,-106,  -3,  -2, 111,  18,
      -7, -59, -43,   5, -16,-122,  83, 101, -91,  14, -99,  44, -56,  40,  58,  68,
    -100, 106, -69,-117,  14, -33,  84,  78, -46, 115, -53,   4, -62, 111, -85,-116,
     -16, 125,  99,  63,  99, 100,   5, -47,  69,  41, -32,-103,  63, -60, 111, -66,
     -96,  84, -88, -81,  25,  95, -77, -48,  70, 120,   0, -90,-123, -69, -94,  45,
     -96,   2,  49,  21, -76,  77,  55,  61, -94, -96, 109, -26, -51,  -3,  41, 116,
     -54, 108,-121,  14,  34,-100, -91, -21, 118,  24, 110,  77,  -8,  72,-122, -99,
      84,  75, -68,   8,  27,  93,  26, -22, -32, -19,  39,  93, -12, -64, -67,  62,
      80,-100,-110,  24, -90,  82, -48, -90, 107, -85, -55, -88, -98,-122,-113, -83,
    -113,  23,  46, -27, -46,   1,  95,  89,-116, -81, -67, -64,  18, -21,-114, -32,
       6,-101,  85,-114, 108,-102,  87, 102, 122,  77,  71,  36,  71, -93,   9,   4,
      91,  -9, -29,  35, -59, -91,  -6, -21, -68, -34, -34, -44, -31,  47, -52, 114,
     106,  -5, -44,   9,  89,  39,  77,   8,  34, -54,  60, -76,  49,  92, -93,  29,
    -103,  57,-106, 111, -92, 117,  76,  24,  72,  75, 113, -63,  23,-103,  30, -83,
      16,  18,  -9,   6,  67,  76,  -2,  25, 110, -97, -97,-105,  40, -21,  70,  43,
     -42, 101,  67, -58, -34, -47, -87, -89, 111, -16, -30,  58,  13, 111,  71,  -5,
     -31, 124,  55, 115, -97,  89,  35, -96,  22,  47,-124, -12,  83, -52, -11, -15,
     -50, 106,  71, -99, 126,  96, -55,  86,-100, 127,  42,  38,-104, 101,-120, -66,
     -91,  70, -77, 104,  40,-118,-126,-114,  27,  77, -66,  89,-112,  76, 109,  69,
      50,  86,-117, -76, -95,   1,  62,  33,  89, -88,  60, -78, -58,  53, 122,  28,
    -113,  30,-116,  98,  53, -83,-104, -80, 122, -11,  72,  35,  18, -90, 113, -50,
      20,  51,  38, 112, -89,   2, -24,  -7, -97, -93, -56, -50, -18,  28,  34, -22,
     -23, -72,  22, -46,-118, -21,  -7, -70,  18,  17,  51,  38,  39, -47,  73,  12,
     -17,  32, -35,   3,  60,  98, 107,   1,   5,  76, -47,  86,  -1, -98,-109,  87,
    -113, -56, -42, -83, -47,  62,-123,  83,  91, -32, -88,  26, -97, -34, 116, 126,
      69, -48,  48,  52, -28,  36,-124, -74,   6, -85, -85,  85, 124,  14,  86, 125,
     -91, -13, -27,-107,  65, -17,  -8, -89, -81, 103,-116, -68, -53,  -2,  22,  -2,
    -106, -65,  87,  35,  38,  43,  67,-112, -34,  10, -41,  87,  -4,  68,  89,   1,
     104,  22,  89, -40,   0,   8,-100, -26, 106,  33, -82, -41, -78,-121, 109, -13,
     -49,  25,-125, -56,  52,  34, 122,  31,  -6,  66, 102,  56, 118,  72,  93, -98,
      59, -15,  13,  39, 119, 123, -54,  59,  63, -39, -96,-117,  70,  -3, 123,  -9,
     121, -22,  75,-105,  14,  77, 108,  82,-118, -32,-115, -99,  45,  54,  70,  93,
      61,  76,-115, -67,  31,  91,-126,   4,  45,-119, -25, 100,  44, -67,  90, -39,
      90, -51,  23, -26, -57,  98, -79,-105, -40,  55,  78, 127, -52, -23, -92,  19,
     126,  51,  24, -27, 105,  -1, -93, -34,-110, -76,-123, -12,  34, -40, -20, 117,
      64,  10, -55, 101, -67, -44, 104,   8,  62,  23,  39, -51, -66, -45, -88,  95,
     -55,  16,  74,  72, -16,  -6, 126,  44,  80, 102,  73, -80,  16,-101,  39, 116,
       3, -17,-118, 117,-101,-117, -64,-110, -11,   4, -48,-114, -99, -29,-112,  50,
     -74, -50, -27, -21,-127, -99,  92,-127,   2,  -3, -42, -17,  71,  87, -61, -45,
     -65,  -5,  47, -69, -43, 109,-115, -10,  54, -89,-115, -92, 106,-125, -79,-119,
     -99,  31, -66,  18,  23,  89,-126,  90,  30, -86,  69,  90, -62, 106, -12,  26,
     123, -35,  80, -46,  76,  26, -72, -22, -46,-107,-119, -39,-122, -85,  57,  53,
      61, -46,  99,  24, -95, -90,  49, -83,   2, 125,-126,-123, 125,  21, -95, 101,
      97,   9,  31, -58,-114,  24, -52,  42,  85,-122,  24, -68,  95, -63,  28,  14,
     -26,  45,  57,  17,  66, 123, -21,   4,-124,  75,   5, -23,-103,  99, -27,  46,
     -89, 117, -82, -76,  91, 105, -73,  -8,  59,  96, -31,   4,  61,  59,  72,  18,
    -100, 103,  93,  76,-102, -75,  62,-121, 122, -31,  56,  98, -27, -46,  28,  21,
     -23,  26, 111,  -8, -77, -31, -27, -94, -86,  47, -41, 116, -65,-102,  64,  97,
     -56, -76, -80,   6,  -8, -61,-116,  -5, 117,  39,  -1, -99, -63, -52,  67,  96,
     102, 123, 123, 115,-109, -92, -50,  13,-102,  88,  30,  11, -85, -63, -86,  89,
      21,  60, -52, -33, -24,  66,  69, -74, 112, -96, 101,-102, -60,  88, -81, -22,
     -13, -65,  53,  89,  95, -41,   8, -64, -65, -86, 112,  99,  70,   4,  -2,   8,
       9, -17, -94, -95, 115,  -5, 115, -85,  14, -74, -63,-119, -97, 106, -45,  27,
      -9, -25,   8, -79, 124,  81,  61,  -8, -88, 107, -40,-114, -40,  75,  31,  64,
      75, -73, 108, -16,  35,-126, 125, -56,-111, -11, -94, -88,  34, -27, 107, -46,
      57, -10,  41,  25,  -7, 114, -40, -82,  45,  88,-117, -13, 100,  63, 125,   8,
      41, -50, 114, -34,  61, -25,  16,  56,   2, 103, -20,  37, -40, -23, -15, -95,
    -104,  43,  40,  41,-122, -44, -77,  71,  92, -64,  43, -94, -57, -92, -55,  44,
     104, -76,  11,  51, 115,  28, -62,  32, -46, 121, -25,  47,-121, -25,  95,  28,
     -14, 111,  90, -45,  11,  -3,  34, -42, -65, 105, 108,  87, 121,  62,  67,  67,
      -5, -11, -66,  37, -54, -62,  22, -23, -71,  80,  92, -84,-125, -42,  76,  86,
     -92,  70, -98, -28, 127, -78, -88, -20,  30, 110, 122,-109, -92,  74, -58,  98,
      42, -99,  84, -82, -19,  13,   0,  47,  39, 125, 127,   4,-103,  58, 121, -46,
     -10, -19,-114,  44, -37,  73,  84,  82, -21, -45,  63,  77,  -2, 100, -90,  96,
    -103, -88,   9,-110,-114,-127, -16,  70,-118,  39,  82, -84, -90,  92,  82,  10,
      81,-103, -27,  60, -62,  64,   1,  64,  -9, -34, -71, -74,  64, -97,-105, -82,
     -82,  82, -26, 125, -92,  39, -13, -27,  95, 121,  95, -78, -71,  40, -54,  60,
      17,  13,  83,  53,-120,-114,  26,  -4, -61, -21,  66,  83,  16, -29, -58,   6,
     -47,  16,  45,-110,-127, -73, 100,  37, -83,  99,  -8,  -6, 111,-112, -72,  22,
     -77,  46, -73,-102, -74, -20, -82, -93,  92, -46, -35,-113, -36, -60,  28, -75,
      99, 109,-102,-100, -98,  30, -96,  90,  65,  81,   7, 126,-116, -25, -45, 114,
      20,  78, -84, 122,   0,  -2, 120, -30, -26,  22, -94, -45, -78,-101,  93,  23,
     -36, -23, -17,  34, 108, 110, -28, -43, -12,  17, -10,  40,  14, -46, -39, -31,
    -103, -85,  57, -28, -73,  16,  65, -62,  83, 109,  25,  43,-114, 113, -27, 108,
      20,-126,-117,  46,  16,-120,  62,  89,  -1,  -9,-126,  73, -43,  96, -32,  17,
     -58, -86,  70,  -1,   9, 118, 118,  90, -79,  24,  96, -32,-101,  79,  -5,  16,
     122,  27, -19, -33, -21, -97,  75,  86, -55, -50,  95,-121,   5,  -9,  48, -85,
      43, -31,  30,-117, -10,   6, -73, -92, -79, -40,-102, 114, -24,  78, 121,-106,
      39,  94,  34, -18, -18,-118,   9, 125, 117,-117,  52, -50, 102,-116, 111,  86,
     -97,-112,  85, -87,   9, 106,  17, -26, -14,-111, 119, -48, -79, -54, 118,-103,
      93,  53,  84, 121,  87, 113, -95,  75,  12,  11, 101, 120,  52,  -4, -11, -29,
     -35, -28,-104,-107,  71, -14, 109,  29,-118, -87, -75, 121, -71,   4, 111, 121,
     -67,-115, -88,-111, -77,  17, 105,   9,  32, -76,  76,  30,  92, 114, -39,-104,
     -70, -16, 113, -31,  69,  10, -81, -46,  39,  44, -17, -69,  56, -84, 111, -79,
    -100,  -1,   5,   2, -16, 126,  -3,  -6, -20,-110,  24, -69,  35,-114, 122,  -8,
     101,  -6,-112,  82,  38,  72, -18,  35,  90,  33, -39,  41,  44, 117, -33, -19,
      79,   1,  60, -10, -72,  62, -94, -77,  32,  63, 100, -58, -99, 116, -88, -77,
     -53,   7,  97,  66,  53, -83, -36,  -5, -90, -58, -49, -95,  13,  52,-109,  -5,
      72,  63,  80, -13,  81, -66, -35, -82,  -8, -27, -66,  64, -47, -58, -94, -16,
     -50, -33, -67,  67, 109,  -1,  36,  93, 127,  29,  99, 104,  74, -10,-106,-123,
      -6,  -1, -24,  17,  13,  86, -99, -70,  74,  88, 126,  95,  99, -47, -25, -59,
      27, 111, -39,  14, -52, -84, -77,-112, 114, -25,  85,  46, -78, -82,  79, -60,
     105, -91,  45,  80, -67, -57, 118, -60, -18, -17, -63,  70,  69, -31,  85, -73,
    -126,  18, 125,-117, -74,   5,  79,-104, -27,  63, -33, -79, -77, -23,  -5,  92,
      36,  48, 123, -22, -25, 108, -65,  58,  65,-102,  -8, -76, -80,  -9, -53,  75,
     104,  77, -59, -57, -62, -93, 113, -25, -70,  88, -26,-118, -86,  35,  72, -73,
     106,  89,  88, -69,-114,  93, -49,  30,  66, -94,  71, 111,  58, -15,  96,   7,
      62,  81,  63, -54, -97, -66,   1,   1,  21, -27,  73, 105, -64,  60,  45,   6,
     -79,  75, 117,  56, 106, 123, -38,  35,  -7, 124,-103, -22,  95, -55,  73, -30,
     122,  97, -50,  69, -41,  27,  40,  84,-121, -71,  54,  16,  -1,-113, -39,  93,
    -119, -26, 113,-114,  63, -62,  93,  63,  98, -72,   8,  71, -65, -68,-120, 116,
      53,  34,  62,   8,  -6, -13,  36, -76,  99,  79, -38,  20, -91, 120, 102, 107,
     -43, -84, -73,-104, -96,-109, 124,-108, -93,  83,  20,  70,  33,  97,  35,   6,
      54, -13, -39,  -8, -84,  75, -61, -88, -64,  87, -43,  47,  91,-107,  67, -49,
     -72,  48, 104, -52,  17, -53,  14,  31,  28,  31, -93,  49,  44,  46,-108, -14,
     -23,-105, -71, -15,  62, -67,  84,  12,  66,  -7,   0,  30, 109,  -2,   7,  26,
      60,-109,   4,  -5, 107,  -2,  -8, 117, -13, -81, -72,-103,-127, -17,  68,  59,
    -119,  18, -88, 112, -84,  32, -44,  36, -22,  66, -68, 103,   0,  65,  89, 127,
     -70, -54, -63, -60,  21, 125, 125,   7,  35,  91, 110, -75,   7,  85, -50, -15,
     123, 123, 103,  76, -59, -46,  12,  15,   1,  35, -23,  63, -42, -43, -95, -79,
      89, -14, -69,  66,  14,-122, -47, -82,  40, -57,-111,-113,  21,-121,  89, -88,
      27, -14, -15,-109,  77, 100,-124, -82, 103,  13, -89, -75,  41,  57,  25, 115,
      -2, -51,  -6, -36, -70,-115, -38,  54,-122, -15,  37,  28,  70,  79,  54,-101,
      -6,  26, -65,-116, -70, -11, -22, -82,  82, 108, -76, 109,-122, 108, 115,-124,
      67, 119, 103, 120,  13,-107,  89,  29,  29, -21,  18, -88,  61,-108,  58,  89,
      -7,   2, -48, 119,  59, -33, -83, -71,  -9, 112,  59, -72,  91, -31,  89, -66,
      30, 108, -61,  49, 124, -89,-105,  44, -41,-109,  -6,  64, -55, -42,  88,   5,
      87, -14, 115,  38, -98,  98,  -3, -91, -88,  48,-115, -54, -91, -15, -22,   6,
     -56,-119,  29, -32,  38, -99,-124, -64, -11, -27,  79, -31,   8,  24,-121,   4,
     -39, -20,-102,  72, 112,-121,  26,  67, -55,  73,  34, 109, 122,-116, -14,  12,
     -90, -42, 124,-123, -12,  87, -45,  -5, 121,  -6, -94,-114, 113, -59,   1,-104,
     -19, 109,   1, 120, -61,   1,  91, -13, -56,  90, -28,   8, 121, -80, -50,-119,
     -27, -76,  46, -81,  44, -60, -37, -38,  55,  -9, -35,  90,  18, -73, 102, -40,
    -117,  -1, -96, -66,  63, -94,  78, 111,  27,  53,  54, 125, -40, -86,   5,   8,
     -82,  29,-123, 109, -60,-117,-100, -66, -57,-119, -56, -78, -31, -29, -41, -44,
    -104,-121, -76,  65, 125, 109,   1,   8, -47,  70,  67,  87, 100, -17,  68,  78,
     -49, 109,-103, 126,  69,-103,  40,-118,  69,  76,  26,  91,-102, -57, -22,-116,
     -13, -60, -27, -19,  96, -58, 100, -19, -44,   1, -21, -62,   1, -88, -38,  17,
     -22,  82, -62, 119,  72, 119,  86, -91,   7, -84,  81,  21, -60, 109, -98,  16,
      56,-112,  25,  80,-110,   3, -61,  41, -97, 111, 100, -80, -45,  22,  55, -15,
     -87,-101, 127, -11,  95,  -4, 107,-105, -98, 109, 114, -47, -37, -12, -21, -79,
     101, -63,  52,-110,-117,  39, -41,  39,-103, 114,  63,  96, -92, -46, -33,   9,
     -52,-112, -33, -62, -29, -77, -60,  32, -28, -39,   9,  69, -31,  22, 118,   6,
     104,  75,-112, -18,  50, 124, -11,-103,  16, -95,  64,   2,  57,  94,  33,  29,
      65,  87,  94,-118,  14, -72,  92,  38, -20, -79, -41,  52, -75,-103,  99,  67,
     -76, -53, 120,  53,  28, -49, -51,-117,  58,-116,-126,  58, 114,  65,  -7,  -4,
     -16, -45,   6, -17,  25, 101, 126,-107, -29, -81, -38, -54, -83,  67,  -1, 106,
    -119,-110, -25,-107, -60, 123, -74, -77,  19,  -1,  20, -31,  83, -92, -18,  48,
      94, -33,  17,-109, -84,-109,  58, -54,  57,-110,  92,  85,-104,-121,-113,  90,
     -67,  12, -19,  75,  -3,   0, 124, -89,  84,-114,  -6,  98,  42,  47, -60, -21,
     -34,   5, -10, -44, -49, -63, -34, -89,  95,  26, -93,  49,  88, -67, -89,-125,
    -115,  67, 124,-116,  63,-109,  23,  65, -36,-124,  24, 125, -62, -79, -96,  14,
      24,  74,  64, 100,  78, -64,  14, -51, -43, 110,  46, 121, -21,  10,  -3,-100,
     -67,   7,-110, 110, -96, -77,  67,-102, 102,  57,-110,  49,  33,  65,  83,  55,
      22, -45,  50, 116,  22,  42, -16,  65, 126, -86, -76,  10,  -5,  18,-115, -24,
      21,  22,  40,  56,  36,  74,  32,  10,  27,-101, -58,   7,  95,  45,-104,  23,
     -71,  59,  83,  24,  23, -41, -14,  92,  57,   5, -33,-114, -91, -78, -32, 113,
       1, -67,-100, -41,  80, -30,  69,  77, -99,  28, 117, -25,-114, 108,  97,   6,
      13, -73,  81,   0,-118,  46, 114,  84, -57,-113, 112, 111,   8,  36,  -9, -20,
     -97,-102, -68,  86, -90, -69,  12, -72, -86,  16, -34,  32, 105, -89, 105, 102,
      84,  33,  31,  35,  48,-123, 116,  22,  71, -31,-124,   2,   2, -16, -41, -64,
       7, -32, 119, -83, -46, -52,  11,   0,  37, 114, -55,  49,-121, -60,  -9,-119,
      30,  45,  63,   4,  26, -26,-117,-102,  39, 126,-123,  15,  64,  83,  11,  30,
      50,  91, -96, 108,-120,  85,-108, -78,-126, -14, -42, -85, -12, -25,  68, 100,
      39, -95, -52, 105,-104, -24, 112, 114, -23,  43, -11,  64,-119, -90,  29, -68,
      42, -38,  98,  81,  -2,  69, -58,  -1, -77,  92,  82, 102,  96, 117, -69, 110,
      18, -20,  15, -40, -54, -66,-106,  -1,  98,  33,   5, -18,  -9, -74,  82, -77,
      55,  66,  19,  92, -53,  97,  58,  76,  42,  88, 125, -20,  80,  62, -12, 108,
     -27,  17,-100, -70,  87, -26, -27, -65,  -2,  78, 100,-109,  19,  -8,  29, -13,
     -26,  -7,  21,   0,  -7,  81,  62, -40,  76,  90, -88,  21, -55,  61, -66,  44,
     -62,   3, 114, -30,  95, 124,  95, -85,  81,-119, -27,  94,  48,   8, -28,  79,
      53,  -8, 100, -69, -84,  36, 120, -64, -64, -92,  92, -69,   1, 125,-124,  14,
       3,  78, -37, -23, -84,  61,  72, -92, -27, 100,-126, -51,  14, -42, -58, -10,
     -81,   8,  53,  19,-103,  87, -83,  67, -35,  72, -75, -80,  -1,-119, -70,  57,
      86,-106,  97,  76,  94,  50,  44,   6,  39, 106,-101, -47,-109, 113, -14,  45,
      87, 125, -86,  76,  98,-115,  65, -37,  38,   4, -61, -93, -97,-101,  35, -38,
     -72,  49,  47,  10, 110, -29,  85,-108,  61, 124,  88,  20,  32, -37,  46,  69,
     127,  -2,-111,  24, -97, -65, -43,  59, -80, -85,-116,  95,  49,-117,-120,  15,
     -55,  25, -17, 108, -54,  46,-113, 116, 122,  61,  -9, -71,  79,  60, -71, -12,
      -9,  83,  47,  36,  38, -58, -33,-115,  73, -17, -16, -65, -74,  22, -68,-111,
      68, -31, -30, -17,  80, -46,  66, 112,  41, -17,  63, -11, -22,   6, -46,-101,
     -22, -96, -23,  14, 109,-118,  31, -11,-122, -64, -97, -72, -57, -25,   7,-127,
     -86,-103,  13, -43,  12, -71,-121, 112, -99, -95, -90, 122,  30,  28, 124,-105,
     121, -75,  31, -20, -29, 110, -89, 126, -31,  38, 119,-112, 107,  17,  52, -89,
       8,  44, -11, -88, -65,  90,-118,  53, 127,-125, -86,  44,-112,  23,  47,  22,
     -34,  50,  24, -74,  16,  97,  42,  -7, -45,-105, -65,-124, 124, -70,  80, -84,
     -55, -21, -45,  76, 116,  95, -88,  70, -89, 105,   5, -42, -87,-124, -64, 105,
      76, 119,-101,  23, -62,  11, -46, -55,  19, -80,  -8,  38, -94, 109,   1,  81,
      39,  53,  55,  95,  29, -56,-102,  27,-110, -66,-112,  12, -86,  28,  74,  82,
     -48,  12,  16,  -7,  39, -74, 122,-102,  84,  24, -65,  62,-106,  70,  23, -99,
    -107,  64, -53,  99,  67,  50, -56,  53, 114,-104, -44, -67, -27,  62,  -7,  18,
     -47, -91, -59,  91,  26, -31,  74,-111, -63, -69, 123,  52,  30,-126, -80,  34,
     -31, 108,  67, -13,  63, 121, -10,  36, 106, -64,  98,-102,  38,  72,  29,  -1,
      30, -88, -72, -58,  25, -15, -65,  97, -32, -14, -23, -81,  59, -13,-123, 118,
      80,  57,  94, 103, -41,  28,  28, -59, -71, -98,  40,  71,  66, -47, -75, -12,
      12, 106,  95, 106,  89, 118,  -9,-115,-106, -28, -62, -84, 115, -77, 117,  66,
      36,  45, -43,  37, -80, 111, -50, -62,  54,  40, -12,  34, -86,  44, -58, -58,
     -86, -43, -43, -12, -79, -78,  11, -94,  48, 113, -19, 102,-102,-116,  56,  66,
      87,-113,  70, -31, -50, -83, 126,-111,  83,  35,  60,  54,  91, -80,-127,  25,
     -37, -96, -80, -43,-109,-113, 106, -48, 122, 118, -91,  55,  26,  48,-103, -79,
    -108,  26, 124,  44,  54, 123,  45,-117,  93, -34,-126,   2, 111, -62,  -2, -83,
    -112,-107,  58,  92, -91, -54, -77,-120,  14,  51,  38, -28,  14,-103, -88, 110,
      66, 107, 106,  38, 109, -21,-126,-111, -99,-103, -38,  51,  74,  23, -90,  63,
     -37,-124, -56, -43, -57,  79,  66,  50, -92,  78,  45, -78,  38,  -4, -15, -99,
       5,-102, -85, -93, 115, -55, -37, -45, 101,  16, 106, -51, -98,  14, -39,  77,
      96,  -7, 120,  13, -58,  -3,-118,  77,-101, -49,  17,-116,-107,  50,-109,  -6,
     -41, -69, -79,  67, 115, -91, 117,  24,  36,  53,  52,  81,  -4,   8, -45,-100,
      42,-118, -57,-103, -79,  35,  33, -20,-104, -17, -37,  56,  20,  -2,  -3, 118,
      65,  -1,  -5,-120, 112, -46, -62, 127,  56,-115,-111,-121,  25,-109, 110, 111,
      12,  30, -53,-111,  60,-101,-105, -48,-124, -17,  53,  77,  26,  88, -24,  89,
       2, -70, 113, -57,-120, -65, -34, -38,   6,  97, -53,   5, -41,  82, -87,-101,
       1,  44,  75,  23,  70, -27,-119, -98,-117, -43,  -1, -36,  15,  -5,  45,  42,
     -46, -39,  22,  24, -47, -43,  49,  37, -93, -15, 100,-118,  90, -86,   2, -19,
    -124, 106, -11, 115, -54,  93, 107,  14, -76,  47,  12, 113, -15, -59, -92,  50,
     120,-120,  61, 108,-108, -99,  49,  38,-110,  85,   6, 103,  96,  79,   4, -63,
       2,-101,  40, -93,   3,-113, -51, -68,  30,  73,-112,  89,  92, -40,  40, -25,
     -88,   7,-105,  96, 108,  82,  16,  15, 123, -64,-108,  16, -43, -45,-125,  24,
     -60, -79,-117, -34,  96, -41,  45,  65, -44,  82,  49,  15,-127,-118, 125,  72,
     111, 102,-122,  74, -12,  74,-125, -54,  64,  74,  30, -50, -48, 119, -15, -13,
      13, -23,  13, -17,  83, 104, 110,  16, -15,  52,  86,  16,  51,  63,  45,  63,
     -74,   0,  22,-126,  90,  28, -94,  80,  55,  66, -27,  90, -22,  18,-127,  37,
      55,  17,  -1,  79,  46, -56, 117,  53, 124, 120, 106,  65,  28, -83,  11,  67,
       5,  94, -99, -30,   2, -17, -99, -88,  86,  -4,-115,-123,  -7, -85,  52,  75,
     -69,  23, -88, -50,  99,  11,  98, -70, -43,  -7,  -5, 126, -98,  89,  92,  14,
     -40,   5, -53,  76,   0, 108,  31,   4,  54,   1, 103, -80, 120,  79,  92,  -4,
      86, -49,  67, -91, -49, -14, -45, -29,  81, -62,  62,-108,  67,  74, -25,  57,
     105,  76, -28,  -4,  71, -53,  77, -44,  78,-105,-116, 126,  94,  97, 115, -16,
     -54, -94,   0, -71, 111,-126, -91, -64, -76, -70,  40, -44,  29,  99,  26,  49,
     -34, -86, -46, 118,  31, -57, -12,  85,  43,  15,  98,  44,  36, -79,-100, 118,
      25, -21,  23,-111,  82, -72,  77,   9, -57,-119,  80, -82,-114,  65, -38, -28,
     -64,  91, -51, -74, -48, -75, -46,-106, -87, -21,  96,-112, -73, 104,  99,  46,
     -66, -20, -73, -94, -30,  19, -36,  28, -52, -39,  74,  96, -45,  18, -56,-113,
      60, -84, -19,  -3, -80,-103, -39, 115,  29, -30,-117,  25,-104,  11,  64, -19,
     -51,-115,-121, -18,  97, -65,  19,  47,-112, -88, -43,  43, -15,  59,  93,  66,
     125,  65,  89,  84,  58,  77, 110,  -6,  35,   4,  89, -17,  81,  76, 117, -64,
      53,  65, 111, 103,  19,  20, -85, 121, -62,  57,  75, -15, -73, -79,  91,   3,
    -104,  55, -63,  96, -48, -76,-105,   3, -13,  64,  -9, -40, -61, -56, 109, -85,
     124, -44,-105, -64,-112,  74,   3, -41,  41,  33, 112, 117,  46,  81,  74,  -2,
      52,-107,  66, 117,-105,  85, 110, -70,   6, 109, 117, -95, -38,  50, -71, -45,
    -121, -88,  16,  39,  38,  71, -22, -58,-123, -75, -48, -82,-122, -87,  42,  33,
     111,  76,  17, -92,  16,-111, -18, -28, -18, -56,  47,  87,  68,  32,  10,-119,
      57,  11, -58, -44, 111,  32,  -6,  31, -22,  -8, -53, -15,  47,-117,  75, -55,
      46,  36,  39,  27, 117,   2,  59,  52, -67, -55, -19, -56, -34, -28,  26, -71,
      77, -16,  52,-106,  -8,-120,  45, -40, 114, -45,  16, -62,  31,  -8, -33, -75,
     -99, -97, 127, -22,-127, 115,-122, -21,  55, 105,  54,  -9, 121,-117, 124,  89,
     109, -62, -91,  41,   4,   6, 108,  31, -48, -25, -93, -78, -91,  79,  52,   8,
     -32,  43,  79,  97,  12,  81,   3,  -6,  93, -29, -26, -50,   5,  11,  41, -18,
     -72,  93, -39, 107, -74,  15,   9,  83, -92, 104,   8,  22,   3,-118,  -1, -60,
     -40,  38,  -1,-103,-108, -80, -79,  28, -82,  97, -74,-104,  95, -52, -19, 117,
     113,  55,-109,  24, 124, 114,-100, -26, -47, -94,  49, -57, -39,-104,  -1, -87,
     -17, -91, 115, -90,   6, -77,-108, -76,-113, -92,  -2,  39,-105, -15,  21, -68,
     -32,-109, -71,  -8, 125, 126, 122, -20,-107, -45, -67,-123,-103, -12, -41, -81,
      55, -36,  89, -66,  10, -80,  -1, -88, -86,  29, -60, -83, 109,-116,  17,  12,
     -63, -12,-105,  56, -71, -78, -47, 102,  75, 114,  39,  41,  -5, 103,   3, -37,
      36,  12, -96, -27, -47,  88, -31,  82, -15,  64, -93, 108,  -5, -61, -66, -60,
     -34,  55, 114,  43,  12, -13,  83,  89, -53, 115, -27,  76, 119,  52, -86,  22,
     -97,  73, -56,  50, 104, -81, -27,  37, -20, -83,-120, -24,  38,  19, -87, -13,
     -33, -57,  58, -48,  10, 108,  10,  30,-108, -82,-101,  67,  85, -80, -71, -45,
      23,  31,  47, 103, -52,  40,  15, -49, 103,-103,  54,  58, 105,   5, -45,  83,
      69,   0,  68, -59,  23,  93, -46,  -4, 115,  76,  98, -29, 126, -88,   5,  -5,
      76, 104,  59,  32, -18,   3,   2,-122,   1,  90,  53,  75, -28,   7,-118, -30,
      -6, -62,-119,  48, -16, -21, -64,  10, -16,  -7,  21,-125, 104,-109, -12, -74,
       6, -56,  91, -26,  35, -64,-122, -24,   9, -10, 117,  53, 126, -52,  73,  14,
      28, 123,  39, 101,  57, -95,  51,  -4, 106,  78,-101, -93,-109,  -2,-106,  57,
      13,  85, -56,   5, -97,  98, -83,-101, -75,  78,-100,  29,  63,  64, -79,-111,
     -13, -76,  51, -36, -13, -98,  17, -80,  45,-109, 121,  47, -81,-123, -42, -88,
     -72,  95,  26, -82,  14, -62, 121,-119,  59,  69,-110, -83, -29,  94,   9,  39,
      72,  83,  -6,   2,  55, -60,  90,-122, -77,  76, -41, -89, -80,   8,  88,-109,
    -119,  -9, 116, -56, 117,  98, -55,  81,  47,   3, -20,  80,  74,  65, 127,  -5,
      78,  92, -73,-116, -24,  91, -54,  51,-125, -37,  29, -94, 101, -87, 104, -72,
     126,  27,-106,-110,-108,  23,  79, -25, -14,  23,   8,  48,  -7,  54, 126, -38,
    -124, -95,  14, -40, 112,  32,   5,  76, -61,  81,-126,  30, 110,  73,  90, -26,
      82,  13,  30,-112, -76,  13,-112,  61,  86, 107,-101, 112,-110,  -7,  86,-109,
    -122,-121,   3,  79, -95, -95,  17, -67,  58, 114,  68,  96,   5,  84, -81,-110,
      40,-114, 100,  49, 115, -47,  -4,  61, -65,  11,  41, 122,  62, -97,  -6,  23,
     -90, -17, -55, -97,   3, -85,  23, -84,  57, -77, 101,-120,   6, -46, -70,  -7,
      87, 105, -50, -88,  56,  21, -76,  66,   5,  39, -36, -15, -81,  65, -87,  71,
      76,  63,-122, -58,  -8,  24, 106, -32,  95, -85, -33,-114,  62, -89, -62,  70,
       9,-123,-126,   3, -50, -81,  29, -69,  23, -31, -80, -92, -67,-119, -49, 102,
      84, -33,  19,  17,  84, -67, -52, -50,-117, -47,  96, 105, -99, -11, -30,  -3,
      14,-122,  87, 120,  39,  41,   7, -42, -89,  21,-116,  82, -20, -22, -44, 119,
     -83, -89, -85,  40, 125, -67, 103, -56,  38,-117,  -1,  39,   9, -67,  83, 119,
     -10,  35,  74, -66,  93, -56,  70, -99, -54,   9,   6,  89, 126,-100, -58, -36,
      -5,  -2,  90,  69,-122, -11,  30, -10, -94, -26, -22, -79,  65, -45,  23,   4,
      96, -96, -98, -51, -17, -51,  67, -65,-105, -22,  69,  89,  59,  15,  57,  46,
     -67,  13,  69, -46,  39,  -5,   1,-104,  42,  93, -91, -34,-115,-119, 124,  -2,
     -37, -57, 122, -63,  57, -55,-109,  47,-127,  45, -63,  63,  69,  57,-121,  52,
     124, -65, -57,  80, -86,  41,  65,-118,  14,  19, -50,  96, -86, -34,  89, -79,
      82,-107,  -3,-108,  45,  74,  89, 122,  44,  68,   1, 105,  37,  97, -67,  -1,
      58, -76, -73, 121, -17, -81, -43, -26,  31, 107, 124,  39,  51, -45,  91, -72,
    -100, 120,  92, -50,  44,  -8, -45, -54, -92,  13, -14,   3, -72, 111,  35, 101,
     -99,  31,  89, -43, -77, -60, -58, -13, -44, -58,  38,-114, -41,  48, -82, -71,
     -76,-127,  -7,-117, -58, 126, 106, -72, -48,  -9,  87,  77, -95, -95, -21,  94,
      97,-100,  19, -87,  47, 106, -11,-106,  20, -23,  79, -41,  95, -57, -87, -49,
    -118, -56,  41, -91, -99, -93,-107,  95, 113,-115,  66,  60, 126, -39, -54, -12,
      91,  58,  -7, -65,  58,  90, -25,  43, -25,  -5,   6,  70, 121, -14, -40, -32,
     -93, -52,-105, -18, -84, -39,  75, -65,  28, 102,  17, -78, -39,  23,   2, -89,
     -14,  11, -59,  29,-109, -42,  77, -61,  27, -23, -47, 106, -40, -67, 104,  62,
      46,-114, -94,  35, -74, -70,  71, -54,-109,-118, -14,  30,  94, -99, -77,   8,
     -35,  -4, 108,  11, -22, 124,-110, 110,   0,   1, 107,   2, -16, -58,  40,  18,
     -73,  53,  37, -26,-126, -14,-125,-108, -18,-106, -57,  39, -49, 126, 106,  22,
     119,  93, -46,  63, -92,  47,  -2,-123, -57, 116, -47, -81, -79,  -5,  87,  66,
     -16, -74,-115,  -9,  80,  58, -23,  24, -16,  20,   4,  46,   2, 112, -18,-123,
     -67,   0,  10,  13,  54, -57,  42,  52, -23, -25, -82, -22,  73, 104,  24, -51,
      46,  61, -43,  83,-108,-124, -96, -87,  96, -19, -57, -18, -27, -50, -92,  40,
     -92,  70, -76,  59,  78, -95,-105, 114,  -9,  33,-121, -56,   1,  98, -58,  70,
      41, -98, -52, -67, -15,  34, -17, -65,  50,  21,   5,  14, -71,  46, -29, -35,
     -89,  25,  26, -41,  91,  88, -99,  50, -27, 127, -70, -56, -15, -59,  49,  -5,
     -71,   2,  99,  74,   0, -54, -81,  96,  53,  18,  96, -96,  46, -72, -96,  -9,
     -29, 112, -45,  80,  63,  43, 107, -23, -28, -86, -57,  96,  -7, -40, -72,  -4,
      55, -54,  65,  33,  73, -63,  33, -88, -35,  57,  33, -79,  91,-113,  24, 123,
       8,  76,  24,  72,  40,  49, -69,  61, -67, 122, -69, -67,  91, -65, -35,  55,
     -87, -87,  -3, -65, -67,-125, -33, -46,-119,  31,  32,-109, -46,  95,  21, -22,
      -9, -74,  79, 105, 104, -70, -48, -86, -49, -42,  34, -79, 107,-101,-125,  90,
      52, -37,  24, -70, -84,  -7, -37,  29, -72,  41,  68, -85,-116, -15,  70,  38,
      51, -25, -67,   8, -75,  57, -77, -53,   2,  -3,  26, -16, 107,  86,  96,  33,
      34,  28, -17, -45,  23,-121,-125,  89,-115,   6,  29, -77, 101, -79,  98,  67,
     -66, -89, -47, -26, -65, 127, -69,  84, -87, 122, -70, -20,  15, -96,  80, -57,
      13,  13,  26,-113, -84, -86, -50, -90, 107,   3,  31, -36, -57,   1, -52, -40,
     -12,   1, 123, -70,  -3, -89, -38,  55, -83,  21, -21,-114, 110, -22,  72, -21,
     111, -53, -22,  66, -40, -34, 126,  14,  48,  36,  83,  92,  16, -52,-121,  29,
      83, -13, -85, -54,   3,  86, -83,  28,  64, 111, -97, 108,  26,  68,-113,   2,
      31, -49, -17,  14,  13,-116, -15, -73, 106, 121, -51, -83, -71,  -6,  95,   0,
    -113,-117, -69,  87,  31,  16, -46, 109, -43,  85, 101,  -4, 100, -57,  40,-105,
      -7, -72,-111,-126, -45,  23, -11, -50, 125, 112, -95, -22,  38,  59, -34,  63,
     -95, -43,  55,  32,  86,-115, -83,-115, -78,-126,   1,   7,  40, -29,-126,  44,
    -113,  93,-121,   8, 100,  18,  28,  46, -96,  44,  97, 120, -14, -39,  64,  11,
     -62, -83, -84, -10, -84,-122,-114, 109,-108,-108, -12, -65, 118, 104, -24, -13,
     -32,-117, -53, -96,-101,  15,-102,-101,  -5, -15, -92,-126, -78, -67,  76, 106,
     -24, -24,  54,  32, -80,-100, -16,  16, -92, -53, -49, -61, -10,  39,   2, -76,
    -101,  82,  -5,-111, -61,  77,  64,  95,  26, -20, -19, -78,  38,  22, -88,  98,
     -33,-114, -44,  94, 106,  -2, 116,  95,  83,  91, -30,  65,  20,  56, -82,  59,
     116, -50, 123, -31, -76, -98,  72,  14, -49,  28, -43, -13,  92,  43,  67,  21,
     125, -66, -60,-103,  14,  29,  57, -42,-124,  34, 127, -52, -80, -55, -19, -63,
     -39,  35, -39, -26,-117, 106, -24, -44,-105,  34,  92,-117, -90, -90,  26, 107,
     -16, -40,  68,  62, -64, -86, -36,  70,  50,  42,  84, -57, -41,-116,  94,  21,
     -51,-109,  57,  63,  42, -75, 105,  64,  40,  38, 103, 109,  24, -21, -35,  81,
      37,-107, -91, 102,  98, 115, -18,  72,  83, -47, -90, 126,-119,  25,  38,  46,
     -62,  56, -72,  84, -71,  50,  72, -79, -67,  71,-105, -79, -11, 109,  16, -29,
     122,  -9, -17, -22, -48, -44,  48,-117,  46, -76, -29, -90,  13,  58, -37, -85,
     -69,  81, -59,  70, -43, -79,  58,  -8,-119, 117, -89, -37, -29,  -3,  73,-125,
     110,  37, 114,  81, 109,  26, -36, -15,  40, -19,  59,-104,  84, -75, 113, -87,
     -94,  79,  81,  61, 117, -58,  83, -38,   9, -14,-126,  19,  63, -83, 110,   8,
     -82,  37, -78,-111,  47, -99,-100,  61,-113,  79,  75, -91,   5,-102,  34,-111,
     113, -74,  46, -94, -74, -12,  19, 127,-120,-127, -38, -34,  97, 105,  97, -91,
     -22,  62, -48,  41, -67, -45,  92, -63, 118, -49,-121, -62, -84,   2, -98,  32,
      95, -35, -84, -25,  73,  23,-101,   9,  -8, -44, -99, 122, -82, -78, -90,  18,
     -14, -64, -18,  44, -55, 105, -49, -77, 115,  79, -40,  87,   5, -39,  86,  64,
     -51,  27, -33,-127, 117,  13,  25,  25,  13, -53, 120,  31,  43, -11, -54,-111,
     -38, -82,  41,  96, -50, -42,  43, -89, 109, -35,-101, -83, 110, -64,  41, -87,
     -78,  96, -89,-122,   0,  92, -44, -94, 122,  45,  89,  64,  50, -29, -45,  55,
      55, 114,  17, -52,  -3,  29, -19,  74,  21,-125,  18,  34, 105, -22,  19,  -6,
       8,-110, 101, 104,  12,  14,-112,  25, -18,  53,-115,  54, -54,  39,  32, -69,
     -15,  85,  27,-110, -15, -48,  36,  29,-124,  27,  60,  68,-112, -50, -20, -81,
     -20,-109, -98,  43, -60,  54,-115,  16, -28,  75,  72, -32,  31, -69,  20,-106,
     -17, -81,  97, -14,  23, -35, -54, -75, 105,  76, -93,  63, -21,-123,   7, -94,
     -74,  50, -62, 100,  40,  84,  29,  94, -35,  12,   4, 103, -85,  20,  65, -33,
      93, -32, -83,  21, -20,-123,-109, -77,  68, 100,  12,-100,   9,  90,  63, -53,
     -96, 102,  90,-113,  82,-102,-111,  66,   9, -22, 103,  86,-112,  29,  69,  13,
     123,  47,-101, -77,  83, 126,-102,-102,  67,-111,-110,  99,  76,  97,  38, -45,
     103, -51, -57,  98,  46, 101, -87, 115,  29,  43, 105, -30,  56,  36,  73, 101,
      46,-110, -80, 115, 119, 119,-118, -30,  66,  64,-105,  28, -91,  -2, -66,-113,
    -107, 104,  62, 110,  -8, -22, -36,  30, -38,  63,  77,  95, -65,   7, -70,-117,
      53,  12,  57,-105, 126, 126,  -9,  93, -65,  60,  96,  80,  79,  -9,  81,  48,
     -93, -98,  69,  32,   5, 103,  41, -26, -22,  27,  66,  16,   2,  58,  52,  84,
    -111,  65,   3,-108,  45,  55,   6,  75, -51, -76, -38, -23,  50,  88,  56, -83,
     -34, -87,  47, -64,   6,  74,  43, -51, -42,  39,  13,-103,  95,   3,  -7, -77,
     -31, -42, -58,  17, -10,  99, 112, -71,-102,  72, 126,  92,-121, -63,-116,  81,
      21,   3,  14, -63,  26,-119,  37,  60,  44, -43,  83,  55, -94, -77,  35, -53,
     -97, -88, -85,  -6,  27, -82,  54, -56, -48, -70,  72, 117,  -2,-116, -61, -87,
      87,-105, 118,  22,   5,  88,-120,  70, -97,  87,   7,-111,  85,-120, -92,  76,
      -9,  97,  34,  31, -53, -93, 117,-100,   7, -58, -60,  24,  76,  70,  94, -53,
      -9,-125,  63, -50,  16, -84,  81,  81,  96,-115, 125, -64, -48, -64, -59,  13,
     -66, -27,  40,  85,  49,  24, -89,  80,-118, -60,-113,  43, -33,  39, -39, -11,
     -11,-115, -18,  36,  12,-108,  43, -49,-123, -87,  -1, -48,  49, -66,  69, -54,
      31,  76, -29,-115,   9, 126, 119, -71,  65, -39, -86,  42,   0,  10,  83, -42,
      42, -34,-116, -31, 114,  -4,-100,  48, 118, 104,  18, -31,  20,  80,  92,  81,
     -11, -97,  18, -87,-112,   0,  39,  90,  72,  91,  66,  52,-124,  32, -96,-112,
     -87,  82,  62, 114, 122, 100, -93,  96,  86,  94, -88, -97, 108, -83, -33, -11,
     -95,-122, 126,  96, 105, -55, -71, -19, -12,-126,  71, 126,   7, -28, -27,-103,
     -59,   1, -17,  11,  89, -70,-120,-117, -93,  18,  78,  98,  34, -25, -88, -25,
     -43,  94,  -3, -70, -54, -92, 106,-114,-124, -81,  79,   6,  32, -36,-110,  90,
     -78,-119,  18,-106,-103,  76,  -2, -66, -38,  58,-110, -97,  30,  27, 120, -32,
    -110,  10,  35, -92,  13, -77,  88,  85, -18, 119, 122, -94, -34,  25,-105, -30,
     -61, 115, -22,  67, -29, -94,  92,-127,-113, -34,  47, -40,-110, -46, -65,-126,
       9, -97, -54,  36,  57, -60, -43, -64, 116, -79, -80, -14, -79, -87,-103,  36,
      28,  38,  69, -44, 106,  59,  77,  56, -36, -55, -20,-102, -12,-116,-126, 110,
      48,  16, -40,  18,  99,  39,  26, -10, -39,  50, 122, -19, -27, -18, -19, 125,
      53, -36, -33, -18,-118,   7,  79,  41, -77,  58,  56, -60,  31,  28,  86, -92,
     -78,  -4,-116, -21,  73, -89, -10, 124,   2,   0,  15, -80, -90,  45, -26, -53,
    -119,  88,-119,  63, -30,  25, -64, -88,   8,  50, -77, -16, -14, -72,  17, -90,
       2, -98,  -4, -48, -12, -17, 104,  -3,  81, -70, -38,-108, -20,  43,  86,  17,
      36, -82,-118,  74, -85,-104, 111, 118,  30, -31,  85, -75, -18, -36, 105, 107,
      38, -99,  -5, -65,  98, -92,-113,  52, -12,  86,-108,  76,-118,-120, -10, -71,
      24,-120,-118,  58, -74,  40,  63,-112,  69, -59, -28,-105,  86,  15,   1, 119,
     -42,  99,  56, 109, 104, 125, -94,  75,  77,  37, -56, 118, -75,   0,   5, -86,
      57,-104,  49,  89, -38,  53, -87,  88, 115, -88,  49,   1,   8,  52,  -3,  25,
     -68, -31,  93, -99,  25, -80,  88,  20, -25, -64, -16, 116,   2,  -8,  63, -31,
     -18, -41, -89,  54,  95, 103,  97, -12, -55,  35, 115,  58,  -1,  48,  69, 106,
      67, -17, -58,   0, -44, 112,   2,  -7, -39,  35,   5, -94,  94, -36, -17, -75,
      14,  51,  97,-114, 120,  52, -55, -75, -52,  95, -53,  -9,  52,  94,  40,  64,
     -83,  96, -57, -94, 121, -76, -92,  32, -46, -93,  26,  66,  74, -88,  14,  80,
     -86, -74,-126,   6, -78,  57, 117, -74,  38, -73,-122,  66, -17, 113,   9, -87,
     -13, -75,  96,  48, -40,   7,  43,  72,-107,-121, -98, -27,  -8, -92, -23, -15,
     -99, 106,  25, -28,   2, -47,  90,  19,  -1, 104,  86,  79, -70, -88,  48,  -8,
      47,  66, -52, -55,  -2, -58,  42,  63,  -7,  57,   3,  54, -70,  61,  55, -59,
      14,  90, -64,  60, 115,  93, -25,  27, 125,  17, -98,-115,  74, -19, -64, -39,
      65,  -9,  94,  60, 120,  99, -62,  40,-122, 125, -61,  42,  89, -86,  88,-124,
     -15,  -7, -32,  22, 105, -44,  20,  96,  69,-117, 112,-115,  23,  19,  73, -89,
     -81,  64, -89,  -8,  59,  38, -74, -50, 119, -13,-116, -71, -40, 127, -50,-120,
       3,-106, -57, 125,  52,-114, -13, -83, -96,  22,   1,  62, 100, -64, 107,   5,
     -61,  88,-118,  15,  56, -56,  92, -66,  86,-107, -86, -30,  90, -90,  95, -69,
     -12, -37, -97, 113, -16,  48,  19,   0,  30, 101,  51,   8,  37,  27, -17,  32,
     -14,  65, 119, 117,  81,  26,  63, -82,  -5, -62,-126, 119,  92,   3, -62,  49,
     -17,  77, 127, -38, -65, -59,-103, -27,-123, -98, -58, -86,  59,-100,  93, -71,
     -99,-124,  55, -62,   2, -99, 123, -95, -22,  89, -65, -59,  78, -58,-126, -18,
    -124, 104,  36,  21, -76,  51,  45,-112,  97,  20,  74, -60, -96,  51,  75, -29,
    -121,  81, -75, -41,  33,-102,-109,-120, 106, -48,  41, 124,  43,   6,   5, -31,
      25, 117,  73, -19, -43,  97, -93,  89, -62,  55,  78,  -6, -78,  88, -34, -46,
       3, -16,  46, -92, -16,  99,-118, -11,  41,  98,  24,  82, -70, -37, 112,  98,
      15,  -6, -12,-112, 100,  81, -11, -56, -40, -96,  56,  14, -68,  31, 122, -96,
     -11,  -1, -85,   8,  27, -87, -88,  91, -48,  33,  32,  86,  61,  87,  32, -13,
     -27, -31, -21, -94, -19, -28,-118, -57,  64,  20,  78,  11,  90,  75,-102, 121,
    -123,  25,  74, -43,  25, -35,-112,-125,-103,-102,  28,   7, -11,  49,-123, -58,
      70, 104, -16,-106,  76,  98, -22, -65,-116,  23, 104,  45, -46,  36,  84,  -6,
      81, -27, -38,  21,  -9, 121,   4, -29, -27,  12, -37,  57, -30, -29,  30,-112,
      39,   1, -12,  56,  66,  88, -32, -44,  54,  21,  33,  14,  69, -79,  14, -87,
     -24,  42,  -2, -31,  98,  69,   7, 114, -19,  73, -84, -54, -41,-100,   0, -78,
      34, -79, -96, 119,  40, 111,  -3,-119,  19,  15,-123,  92,  30,  62,  -2,  30,
     -62, 120, -25, -86,-113,  35, 123, 101,  51, 125,  57, -41,  26,-107, -71, -21,
     -76, 115, 126, -33,  53, -23, -92, -41, -68, -44, -72, -98, -72, 103,-105, -45,
       7, -37,   4,-116,  38,  16,  46,  17, -16, -38, -69,   0,-120, -44,  45, -99,
    -111,  39, -26,  77, 111, 116, -19, -60,  28,  33,  31, -45,-111, -74, -88, -96,
     108,-123,  26, 114, -36,   7,  50, -46,  -6,  81,  62,  78, 124, -33,  63,  26,
      42,  61,  63,  98, -38,  39, -56,  24,  64,  74, -20,   2, -42, -84, -61, 105,
     -49, 121, -66,  57,  19,  50,  37,  53, 103,  16,-110, -58,  53,  -2,  12,  25,
     -30,  70,  57,  54,  55,  99,  24, 119, -97,  34,  55,  -6, -54,  13, -34, 104,
     -36, -82,  19, -26,-103,  16,  10, -83,  25,  17,  69, -35, -64, 115,  16,-120,
      81, -77,  73,  52, 119, 118, -57,  68, -47,  33,  25,-113,-126,-112, -95, -62,
     103,   5,  75,  86,  60, -28,  92,  61,  62, 102,  25,   7,  99, -12,  79,-113,
    -127,   7,-108, 121,-126,  55, -65, 119, -30,-120,-120,  14, 124, 122, -41,  -4,
    -101,   6,  25, -63,  28, 102,-127, -69, -74, -96, -85,  32,-101,  61,  98, 108,
      41, -77,-105, -68, 117, 117, -30, -44,   3, -53, 122, -71, -33, -18, -95, -30,
      91, -91,  21, -24, -84,-124, -58,-111, -31,  79,  56, 114, -19,  53,  42, -72,
     -50,   8,  75, -10, -69, 125, -98, 116,  78,  86,  75, -74,  34,  65,  62, -58,
     -81, -44,  -5,  19,  86,  68,  45, -60,  -5, -42, -67,-124, -41, -62,  18,-111,
     -58,-116,  36,  17, -41, -90, 116,  21,  45,   8,  78, 101, -30,  48, -69,  39,
     -26,-125, 116,  94, -53, 126, -46, -10,  89, -50, -13,  42, -94, -20, -48,  45,
     -92, -68,  54, -87, -20,  54,  67,-103,  89,  57, -41,  67,  58,  26,  15,  60,
     127,  20,  78,  62,  90, 115, -78, -85,  22, -13,  18,  76, 110, -21,  55, -77,
       9,-121,   1,  12,  60,  38, -36,-126, -98, 120, 107, -44, -61, -16,  48, -36,
    -110, -25, -61, -44, -86,  40,   7, -58,  14,  -2,  75, 116, -94,  98,  52,  49,
     -32, -40,-126, 122,  27, -25,  11,-117, -83,  31,   4,  73,  40,  26,  80,-110,
      48,  55, -57, -77, -73, -77,   6, -93,  40,-100,-120, -46, -78, 124, -50, -71,
     -77, -32,  27,  72, -34,  32,  -5,  88,  18, -53,  52,  81,  -9, 124,  96, -77,
      73,  26,   9,   4,  90,  28,  10,-115, -13, 104,  54,-114,  98,  83,  12,-121,
      16,-113, -46,  33, 105, -36,  91, 106,-122, -66,  53,  65, -27,  40,  28,  61,
      56,-105, -87, -93, 110, 105,  76, -97,  19, -79, -33, -59,  84, -90,  37, 123,
      48,-107, 104,  36, -11,  41,  96,  -6,   8, -12,-109,  73, -95, -27, -29, -56,
     -25,  30, -48, -83,  94, 120, -11, -44,-115,-118, -27, 109,  59, -38, 119, -18,
     -57, -19, -73,  98, -35,  40, -28, 102,  36,  -3, -93, 102,  12, -55,  96,-113,
     -47,   9, -41,  -6, -60, -94,-118, -87, 115,  19,  -3, -29,  53, -91, -57,  40,
      -5,  69, 101,  82, -80,-104, -84,  72, 105, 108, -51,  86,   9,  82,  12, -90,
    -107, 116, -19, -38, -36, -31, 113,-111, -97,  74,  13, -94,-118, -70, -61,-123,
     -72,  61,  90, 101, -28, -46, 127,  68,   9, -62, -45,   4,  11,-124, 117,  19,
      23, -73,  67,  60,-103,  24,  40,  85, -75,  96, -10,-102,-100, -77, -55,  -1,
      63, -80, 125, -86,  25, 109,  84,  38,  55, -93,-125, -17,-104, -36, -70, 106,
      97,  81,  54, -88,-115,  39,  36, -33,  -7,  -3, -66, -47, -21,  26, 116,  10,
      59,  78, -98,  39,  -5,  18,-117, 103, 115,-126, -73, -81,  71,  25, -82,  80,
     -37, -10, -29,   5,  -5, -57, -19, 104,   1, 106,  13,  68, -52,  74, -60,-122,
     -86,-122, 114, 127,  67,-100, 101,  62, -43,   1,  41,-121,   0,  59, -79, -14,
       8,  60, 118,  88,  31,  21,  26,  11,-112,  50,  55,   3,  94,  44, -35,-122,
    -112, -38, -10, -85, -79, -69,  71,  69, -30, -83, -99,-105, -28,-115, -42, 117,
       2,  82, -94, -59, 113, -30,  38, 121,  13, -49,   8,-113, -98,-125,  98,  44,
     -51, -71,  47, 107, -51, -45,  90, 100, 105, -53, -96, -15, -52,  98,-118,  34,
     103, 121,  38, 114,-108, -36,-125, 122, 102,-120,-122, -34, -61,  88, -86,  74,
      14, -31, -90, 126,  30, -15, -33, 103,  82,  79,  30,  99, -51,  52, -24,  25,
     127, 123,   3,  19, 101, 123,  71,-110, -45, 101,  68,  62,  43, -22, -25,  78,
     -52,  47,  57,  88, -46,  61,-100, -92, -21,-113, 114, 102,-115,  86,   2,  51,
      98,  20, -97,-126,  -1, 114,  18, -32,-119, 105, -44,  52,  49, -63,-111, -29,
     -46,  51,  81, -70,   7,-117, -73,  66,  75,  70, -91,  13, -20, 125,  39, 111,
     -90, -12,  69, -34,  34,   3, 125, -83, 111, -25,  -8,   7, -60, 118, 105, 120,
     126,  43, -12,  89,-121,  85,  -1,  44, -32, -33,-119, -19, -23, -70, -64,  21,
     -46,  84, -99,  20, -86,   7,  13,  36, -18,   2, -81,  -9, -32,  42, -17,  71,
     -19, -67, -57,-115,  10,  84,  68, -16, -77,  92,-113, -26,  91, -27, -97, -59,
      25, -88,  39, -16, -42, -66,  82, -26,  61, -15,-104, -15,   2, -11,  80, 104,
      73,  21,  11,  37, -54,  79,  91, -59, 102,  89, -19, 104, -96,-120, -39,  17,
     -38, 112, -62, -56,  34,-126,  58, -31, 121,  49,-114,-103,-105, 115,  47, -18,
     -76,  95, -76,  52,  67, -52,   1, -70, -31, 118,  49,  88,  10, -66,  54,   0,
     -82, -22,  34,  60, -65,  96, -31, -58, -77,  77, -37,  -4, -70,  47,  71, -41,
     113,-119, -93,  23,  51, -63,  14, -46,  14,  40, 120, -11,  38,  20, -46, -63,
     124, -74,  74, -90,  77, -80, 119,  47,-104,  49,  26, -41, -61,  56,  61, -44,
      96, -59,-109,  25,-100, -57,   2, -54, -72,  52,  12,  86,  21,  -4, -61,  74,
     -77, -65,  87,  61,  29,-117, -95,   0,  63,  -9,-123, -80,  23,  49,-119,-116,
     -61,-106,  11, -96,  38,  70, 120, 114, -58,-120, -43,  53,-112, -36, -51, -71,
      52,  40,   9, 104,-101, -89, -30,  40,  21,-108, 116, -50, -36,  31, 113,  41,
     116, -79,  30,  84,   2, -35, 123, -91, -23,  95, 102, 122,  98,-114, 109, -18,
      39, -27,  80,  19,  88, -78, -80, -15,-126,  49, -52,  15,-109, -84,  31, -49,
     -72, -69, -72,  31, -84, -35,  48,   3,  25, -63, 110, -22, -54, 103,  39,  29,
      98,-112,  86,  45, -36, -62,-100, 112, -91, -61,  49,  53, -86,  80,   3,  89,
    -105,-116,  35, -89,   6,-123,  71, 101,  86, 116, 102, -14, -26, 101, 108, 120,
      68, -76, 113, 114,  42,  91,  16, 113,-103,  92,-113, -41, -93,  -5, -68, 115,
      15, 101, -56,-120,  70,  51,  12,  80,  86,  22, 118,  56,  45, -35,-126, -66,
      67,  53, -43,  32, -77, -60, 114, -22, -65,  -3, -29,  58, 117,  23,  23, -34,
      16, -46,-127,  93, -18,  -2,-106,  86, -84, -23,  86, -11, 110, -74,  55, 121,
      13,  49, -27,  64, 104,  52, 111,  23,  20, -50,  53,  97,  37, -68,  11,  65,
     112, -87, -95, -22, -95, 122, -19,   9, -69, -13, 123,  -3,-125, -65, 122, 124,
     -74,  29,-107,  20, -95,  81, 112, -83,  -9,-101, -41,-110, -60, 125,-116,  91,
    -107,   7, -12, 110, -76, -81,  63,  57,  51,-120, -61,  86,  26,  26, -52, -61,
     113,  58, -95, 111,  21, -42, -26,  57, -31,  20,  53, -77, 113, -37, -20,  50,
      28, -15,  38, 102,  76,  82, -61, -20,  14,-116,  69, -45, -55, -61, -55, -41,
      27,  21, -62, -75,  83,-103,   3,   5,  19,  98,  31, 120,  94, -72, -66, -39,
     -28,  13, -68, -71, -30,  44,  48, 121, -76, -27, 118,  48,  23,  10,-108, 100,
      32,  18,  10, -27, -62,  65,   2,-118, -26, 109, -32, -22,  31,  77,  43,  89,
     -98, 108, 103,   5,  32, -73, -13, -76,-121, 122, -61,  24, -51, -33, -26, -42,
      35, 117, -18, 120,  43,  27, -67,-111,  89,  19, -22,  79, -48,  72, -44, 107,
     -59, -92,  50, -86, 114,  40, -68, -74, 108,  27, 100, -99, 108,   5,  43, -32,
    -112, 116, 126, -34, 113, -84, -88,-108, -28,-114, -27, -92,  59,  85,  48, -76,
      68, -64,  66,  17, -34,-106,  83, 112,  42, 118, 110, -78,  59, -38,  -3, -87,
     121,  57, -59, -33, -20,  63, 108, -45,  -7,  24, -27,   1,-100, -84, -25, 105,
     -38, -64,  62, 114, -10,-125,  48, -22,  44, -56,-126, -39,  52, -27, -71,  -9,
      64, -97,  49,  43, -33, 119, 100, -47,-119, -49, -75,  12, 106,  94, -49, -18,
    -118,  11,-111, 111,  93, -73,  51,  17,  77,  -6, -78,  36,-107,  21, -73,  47,
      83, -99, -25,  59, -85,  17,  44, -37,  84,   3,  32, -91,-121,-114, 103,  97,
      78, -76,   6,  75,  44, -98, 100, -86, -83, 102,  -4, -32,  14, 122, -97,  65,
     -42, -97, -20,  12, -75, -24,  34,  19,  57,  85, -23, -20,  -1,  17, -99, -48,
     -83, -29, 120,  21, -18,  17,  43, -17, -13,  51,-112,  10,  12,  65, 123,  75,
       1, -84,  22,  85, 110,  83, -79,  54,  97,  46,  47,   0,  35, -52,-104,  83,
     113,  91, -42,-103, -56,  87,  40, 119, -40,  13,  74, -68, 118,  23,-125,-121,
      97,  37,  67,  72, -20,  76, 111, -83,  67, -49, -45, -22,  92,-121, -17,  46,
     -99,  74, 112,-104, -88, 120, -77,-107, 115, 100,  40,  13, 106,  40,  40,  87,
      39,   1, -28,   1,   6, -35, -13,  77, -21,-121, -55, -68,  75, -13, -56,  79,
    -122, -83,  83,  13,  70,  86, 112,-111,  76,  53, -74, 110, -24,  98,  27,   7,
     -86, 105,  14,-125,-122,  71, -86,  25,  46, -56,  18, -66, 113,  91, -54,   7,
       0, 117, -27,  16, 109, -86,  13,-100,  30, -34, 119, -21, -92,  85,  82,  49,
      63, -60,  36,-117, -77, 110,  61, -68, -99, 114, -99, -62, -81,-125, -47, 120,
     -40,   1,  62,  13,  62,  41,  28,  38,  76,  53,  74, -90,  45,  60, -51,  95,
     -50, -65,  93, -64, -21, -34, 101, -11,  49,  75,  32, 113,  77, -25, 115,   6,
    -121, -61,  31, -87,  21, -35,   9,-127,  89, -35, -91, -16,  -4,  35,   6,-116,
      94, -11,-107,  69,  41,  38, -19, -23,   9,-114, -51, 124,  41, -21, -71,  62,
     -61, -86, -88,  58,  36,-109, -98,  34,  18,  47, -82,  58, 111,  26, -77,  46,
     -40,-114, -50, 103, -23,  93,   2,   4,-126,  35,-100,  -5, -61, -27,   9,-123,
     -55, 124,-112, -46, -45, -31,  47, -64, -10,  37, -45, 114, 122, -97, -40, -74,
     -80,  -2,  16, -19, -58, -56, 125, 108,-108,  40, -11,  48,  25,  99,-110, -38,
     123, -81, -95,  58,  70,  44,  70,  49, -93,  27,  70,  93, -64, -95,  71, -62,
    -119,  83,   2, -44,-124,-118,  74,  -3, -89, -36, -85, -98, -57,  13, -74, -40,
      -6, -20, -94,-117,-118, -38,  56, -94,  73,  55,-126,-120, -77,-113,   8,-117,
      77,  -2,  58,  64,   2, 108, 125, -36, -95, -35, -70,   8, -31,  -5,  67, -57,
      10, -42,  72,  35,-125,  41, -84,  57,  17, -25,  49,  91,  71,  12,  57, -22,
      73,  84, -92, -67, -58, -85, -27, -78,  24,-101, -58,  42, -26, -20,  76, 123,
      17,-107,-101, 119,  46,  64,  45, -81, -13,  76,  93, -67,  24, -87, 116, -63,
      58, -68,  29,  40, -44,  81,  98,  90, -43,  62,  15,  24,  -6,  25, -93, -23,
     -82, -56, -95, -73,  72,  13,-121,  73, 104,  97,  82, 125,  22, 117, 114, -47,
      92,  74,  70, 101, -29, -25,  36,  60,  96,  95,  56, 116, -82, 114,-111,  14,
    -104,  17, -28,-106,  38,  59, -83,  49, -82, -92, -90,  25,  71,  25,  79,  23,
      76, 121, -28, -89, -93,  25,  12, -80,  97, 116, -63, -74, -73, -29,  90,  24,
    -110,  -7,-104, -24, -25,  38,  13,  95,-123,  70,-121, -50,  96,  48, -83,  -2,
      56, 111,  34,-121,   0, -88,-115,  25,  70,-118,  72,  52,  64, -65, -27, -97,
     -66, -50, -46, -83, -79, 102,  72, -40, 114, -66, -24,  80, -15, -67, -33,   0,
      31, -24, -17, -60,   9, -71,  93,  63, -23,  63,-125, -40, -15,  -8,  63, 118,
     -30, -38,  28, -56, -91, 117,  79, 116, -72,-122, -16, 110, -92, -97,-109,  67,
      73,  50,-113,  57, -13, -87, -52,   0, -43, 119,  -6, -32,  44,  38,-126,  30,
     -65, -32,  52,  15, -33, -84,   1, -46, 105,   9,  93, -28,  83,-113, -51,-107,
    -119, 106,  55,  32,   8,  18,  35,  83,  25,  63, -56, 121,-119, -29,  97, -81,
     -91, -34, -18, 110,  85,  -9, 120,  36,  95, -65,  -3,-119,-125,  52, -97,  12,
      50,-119, -13,  47,  99, -51, 120,  88,  38, -27,  54,  80, -50, 125, 104,  -4,
      57,   6,  66,  83,-121,-107, -42, 106, -26,  98, -10, -54, 102,  15, -35,-116,
     -99, -92, -34,  27, -49,-110, -60, -23, 125, -27,-104,  21, 107,  73,  85, 109,
      35, 126,-119,  85,  91, 106,  -6,  73, -77,  26, -36,  24,  45, -39, -72, -45,
      42,  45,  61, -95,  81,  48,-119, -42,  -8, -35, -97, -74,-121,-103, -59,  81,
       7, -19,  41,  11, -94, -70, -70,  25, -10, -29,  14, 119, -47,   5,  -5,  55,
      58,  58, -76, -13,  79, -30, 123, -34,  -1,  -6, -17,  88, -88,  17,  30,  89,
      28, 117,  95, -38,  91, 116, -62,  28, -55,  38,-103,  59, -20,  22,-120,  50,
      -1,  32, -47, -90, -16, 113, -69,  45,-114,  55, -66, -12, -34, -98, -39, -38,
       6, 120,  -8, 105, -10,-100, -69, -23, -44,  93,  45,  20,  -2, -26,  28, -95,
     -86, -50, -84,  45,-121, -86, 102, 126,  -3,  -1,  69,-118, -19,-102, -25, 123,
      64, 123,  62,  27,  65,  40,  -9, -53,   5, -61,  -3, -90,  17, -65, -52,   0,
     -86, 117, -13, -38,-120,  87,  32, -21, -65,  62, 113, -30, -93, -99,-125,  62,
     122, 125,  72, -86, 121, -44, -42,  48,-115,  83, 126,  70,  72, -28,-110,  74,
      25, 104, -98, -49, -35,  47,  73, 117, -52,  -2,-120, -63, -32,  24,  -7, -34,
      32,  83, -66, -40,  52,  71,  83, -74,  10, 102, -27, -18, 123, -98,  52,  89,
     -89,  54,  -8,  90, 103,  95,-111,  65, 107,  31,  26,-116,  90,-115, -47, 108,
     114, 125,  -6, -82,  -3,-101,  95,  15, -24,-107, -24,  93,  52,-106, -86, -27,
    -101, 110,  39,-103,  73, -33, -65,  18,-124,  -9,  87, 109, -40,  36, -69,  15,
     -62,  18, -83, 112,  98, -41,  70,-103,  61, -55, -93,  45,  -8,   8,   5,-112,
    -114,  26,  31,-115, -31,  29,  40,  83, -20,  12,  20, -48,-113,-126,  85, -76,
      33,  20, -25,  85,  50,-121,  70,   2, -39,  58,  47, -48, 123,  38,  27,-109,
     -56, -13,  33,   3,  67, -60,  51,  80,  67,  69,  99,-106,  50, 119,  19, -72,
     127, -83, -42, -83,  -9, -21,  -2, 109,  -6,   4,  98,  81, -66,-124,  33,  88,
      13, -73,  61,  43,  17,  92,  72,  43,  42,  41,   6,  -9,  53,  28,  -3, -95,
      51,  37, -40, -36, -64, 117,  91,  16, -25,  60,   7, 121,-113,-118,  17, -75,
      26,  71, -92, -15,  48,  85,  -1, -75,  22, -12,  69,  14, -56,  65,   5, -82,
      16, 114,  52, -51,  54, -55,  11,   7, -64, -39, 112, -63,  76,  43,   8, -92,
     -75, -82,  22, 120,  96,-121, -57, -87, 121, -67, -76,  31,  14, -70,  43,-102,
    -122,-106, -34, 121,  12,  65, -45,  56, 118, -36, 127,  35,  63, -63,  36,   3,
     116, 103, -26, 114,  98,  23,-106, -86,-107,-100, 121, -73,  48,  35,  33, -74,
      20,  32,  18, -80,  57,-108,  23, -16, -63,  78, -82, 110,  98, -35, -49, -92,
     106,  32,-119,   3,-105,  19,   2,-106,  80, -60,  11,  35, 117,  -2, 106, -37,
      91, -67,  53,-104, 123, 115, -15,   6,  25, -57,  44,  50,   6, -89, 106, -98,
      33,-101, -90,-122, -35,  35,   5,  44,  44, -91,-112,  32,  39,  14, -65,  79,
    -108,  34, -96,  39, -21,  55,-114,  14, -90,  46, -97,-108,  54,-111, -70,  82,
      79,  90, -44,   7,  69, -92,  57,-102, 105,  35,  -2,  -4, -81, -39,  58,  10,
       7, -77,  48, -27, -81, 113,   2,   7, 122, -34, 113,  50,  34, -67,-114, -16,
    -124,-109,  24,  57, -84,  59, 114,  62,  72,  51, -70, -35, 114,  41,  73, 119,
     -68, -45,  37,-121,  18,  78,  28, -52,  57, -90, 100,-101,  92,  -1, -18,   0,
     -76, -11,  89,  76, -86,  44,  91,  81, -19,-115, 110, -26, -35,  66, -60,  85,
    -108,  61, 118, 126, 108,  94, -56, 119, 109,   9, -25, -99,  23,  51, -24, -24,
      19,-120, 116, -53, -91,-126,  91,  92,-103, -88, -13, -80,  60,-112,  13, -30,
      -9, -19, -88, -71,-111, -98, 121, -56, -49, -95,  65, 108,  74,  29,  80, -24,
      91,  76,-127,  -3, -60,-105,  88,-125,  58, 124,  -5, -33,  27,  77, -66, -63,
      27, 112, -51, -31, 125, -82,-107,  23,-121, -81,  31,  41,   3, -30,  19,  36,
      77,  74,  42, 100,  86, -93, 116, 100, -45,-122,  26, -16,  63,   6,-108, -65,
      97,-117,  60, -53, -12,   8, -63,  39,  49,-105, -32,  62,  56,  11,  71,-100,
     -97,  40,  49,  80, -81,   4,  41, -70,   4,  35, -73, -32, -72, 102, -67, -96,
    -118,-116, -78,  27,-123, -54,-112, -24,-115,  27,  48,  59, -70,  94,  48,-113,
     -15,  68, -48, -30,  33,-113, 119, -83,-120,-126, -26,  98,  81, 105,   9, -13,
     -29,-115, 104,  -1, -11,   4,  75, -70,  53,  54,  89,-125, -84,  -7,  89, 118,
      24, -73, -80,  35, -74,  13,  85, -28, -31,-118, -62,  50, -35, -87,-100,-103,
      40,  29,   5,   0, -88,   0,-112, 108,-112, -19,-127,  73, -85, 108,-116,  81,
      40, -64, -76, -36,  83,  92, -82, -37, -67, -96,  37, -39, -70,  93,  63,  70,
    -117, 105,  19,   1,-124, 101,  11,  83,  40,  75,  49, 107, -70, -76,  54,   0,
      25,  53,  12,  73, -46,  91,-100,  34,  99, -63, -44, -49,  16, -22,-100,  99,
     -75,   9,  24,-117,-103, 120,  42,-118,  75,   2,-108,  46,   0, -75,  96, -53,
     -55, -58,  68,  52, 102, -69,  73,  19, -49,-118,  81, -66,  33,  12,-126, 126,
      80,  -3,  46,  -6,  62, -93, -14, -42, -10, -13, -91, 121,-123,-124, -32,  31,
     -81,   8,  57,-103, 123, -41,  36, -99,  53,  86,-100, -95, -56,-124, 123,  25,
      27, 117,  84,  80, -41, -42, -53, -39, -33, -91, -37, -14, -48, -85, -32,  -5,
      56,  54, -76,-118, -50, -87, -26, 122, -81, -46,  57,   2,-116, -86, 111,-101,
      34,  74, -60,  57, -84, -55, -48, 126, -72, -94, 108, -86,  96,  38,  20,  64,
      57, -99, 127, 112, 101,  31,   6,   9,-123,   0,  31,  40, -43,  -7,  35, -18,
     117,  52,-127,-121,  48, -22,  86, -83,-123, -28,  60, 120,  97,  -4,  79,-109,
      18, 108, -26, 117, -71,-100,   6, 103, -48,  76, -84,  62,  14, -83,  55,  54,
       4, -70, -93, 116,  40,  79,  50,  84, -86,  -1,  42,-101, -89,  34,  94,  41,
    -118, 119, -92, -68, 121,  69, 111,  78,  39, -55, -44, 114,  92, -36, -32, -51,
     -44,  92,-124, -16, 112,  11, -13, -48,-108, -70,-104, -95, -85, -50,-124, 114,
     -96, -30,  96,-100,  -4,  88,  14, -74,  60,  46, -35,-115,-125,  83, -45, -92,
       5, 107,-125,-113, -21,  45,  -6, 101,-116, -41, -38, -41,  -3,  74, -46,  62,
     -90,  15, -32,  10,-100, 115, 103,  83, 100, -90,   1, -46,  98, -79, -71,  47,
    -104,  59, -59,  41,  95,  28, -73,-115,-116,-104,  20, -39, -65, -71, 114, -97,
     -50,  -7,-127, 107,-102,  46,  33,  79,  38,  68, -20,  -3,  51,  17,   3, -75,
     -61, -36,-125, -21,-126,  17,  52,  16,  49,-127,-112,  50,  77,  55,  41,  53,
      61,  57,  60,-108,-111, -35,   7,  67, -42, -57,  71, -64,  81, -82, -36, -25,
     -51,-126, -67, -41, -47,  73,-115, -28,-117, 109,  74, 122, 104, -47,  49, -49,
      99, -23, -32, 105,  86, 118,-110, -65, -51, -19,  -7, -53,  74, -70,  50,  89,
      26, -37, -79, -93,  62,  -8,-115, 123,  44,  87, -16, 116, -76, -80,  99,  99,
       0, -95, -49,  65,  88, -39,-111,  42,  61, -19,  21, 124, -65,  19,  28,  12,
      94,  27,   2, -96,  52, -93,-120,  -3,  18, 127,  54,  89, -39,   2, 120, -21,
      78,   7, -70,  20, -72,-126, -67, -78, -33,  99, -28,  88,  14,-125, -79, 110,
      26, 109, -48,  55,  69, 121,-122, 115, -28,  86,  11,  16, -36,  83, -60,  -2,
      15,  62,  -7,  46,  -4,  40,  44,  53,  82,  10, -78,  46,-107, -71,  74, -16,
       0, 124, -67,-122, -99, -65,  57,  70,  17, -62,   6,-123,  46,  29,-121,  81,
      67, -49,  34,  26, -91, -78,  47, 110,  19,  17,  37, -15,-113, -26, 102,  77,
     109, -88,   2,  22, -74, -76,  72,  44,  37, -59,   2,-121, -94,   5, -48, 118,
      -7,-106,-122,  57, -83, -79, -19, -60,  30,  -4, -99,  72, -19,  28,-126,  32,
     -55,  -1, -51, 126, -68, 105, 106, -20, -50, -30, 124,  30,  11,-118,  88,-106,
    -115, -57,  -6, 100,  74, -77, -32,  71,   7, -83, -26,  32, 120,  41,-123,  52,
     -63,  92, -29, -76,  -8, -62, -67,  19,  68,  85, -26,-110,  -4, -17, -77, 101,
     120,-114,  75,  37, -61,  34, -94,-109, 125,  35, -63, -13, 114, -16, 102,  94,
     -40,  50,  41,  69, -34,-114, -84,  30,  70,  65,  21,-105,-123,  72,  13,  72,
     -86, -24, 106, -83,-111,  39,  24, 115, 103,  63,-122,  -5, 101, -17, 117,  39,
     -99,   2,  50,-110, -39,  55, -87, -39,  48,  70,   5, 116, 108,  -7, -86,  69,
     -65,  87,  22, -27,  14,   8, 108, -73, 109,-119,  68, 107, -27,-108,  77,  87,
     -42,   5,  79, -78,  33, -18, -83,  84, -45, 110,  18,   4, -19, -25,  81,  45,
      70, -20, -61,-105,  70, -22,   2,  -8, -17,  47,  28, 120, -92,  19,-111,  78,
      30, -18,  77, -11, -69,  -7,-109, 101,  59,  66,  95,  74, -17, -97, -32, 110,
     114,  68, -75, -78,  96, -91,  21, -31, -50,  45, 117,  71,  -4, -15, 104,  20,
      -1,  46, -67,-111,  90,  27, -85, -51, 124,  34,  35,-109, 119, 100,  12, -48,
      50,  85,  73, 121,  35, -45,  -1,  80, -60, -68,  57, -14,  80, -91, -42, -59,
      50,  66, -11,  -6, -93,  51, 125,  71, -70,  31, -52,-119, -81,-101, -77,  75,
     -53,  65, 114,  19,  -4,  64,-102, -18,   0,  84,  80,  88,  50,   8,  83,  95,
      -5, 123,  95,   3,-109, -70,  70, -99,  -8,  27,  96,  88,  67, -23, -91,  43,
     -81,  16, 122,  13,  37,  45,  84, -17,  -1, -82,  29, -52,   2,  68,-123,  16,
     -83, -56,-118, -84, 124, 127,  56,  28,  70, 101,   5,-118,  53, 123, -61,  -9,
     -35, -28,  56, -31, 112,  74,-120,  81,  69,   4,  -1,  85, -19, -86, -48, -60,
      46, -82,  37,  -9,  86,  -4, 109, 102, -80,  47, -72,  82,  34, -52, -64, -18,
      76,  75,-119, -50, -20,  22, -89, -42,  98,  -6,  62,  -4,  -9,  31, -61, -64,
     124,  94,  60, -92,-119, -82, 111,  80,   6, 119, -90,  15, -80, -49, 112,  94,
    -101, -64,  24,-111,  13,  21, -53, -53, -69, 111, -28,  22, -50,  51,-101,-109,
      62,  58, -60, -37, 116,-101, -80, -18, -55,  38,  48,   7,  28, -17,  66,-116,
     -48,  47, -43,-107, -39,  54, -96,  57,  70,  34, -65,  78, -73, 103,  52,-113,
      76,   2, -12, -20,  27,  57, 101, -58,  33,  47,  44,  -2, -28,  67, -51, -74,
      12, -59,-119,-114,  50, 120, -12, -90,  81, -61, 126,  16, -68,  -1, -42,  71,
    -100,  91,  68,  92, 100, -69,   5,  89, -31,-112, -53, -66,  94,  -9,  47, 117,
     -51,  66,-121,-101, -86, -48, -25,  -6, -65,-110,  45,-121,  79, 109,  53,  24,
      40,  39, 110, 118, -19,  30,  77,-127,   7,  39,  55, -33, -52, -81,  15, 107,
     101, -36, -62,  73,  57,   1, -28, -96,  72,  30, -31, 106,  41, 109,  -6, -12,
     111, 117, 117,  81, -10, -74, -30, 111, -35,  65, 107, 119, 114,  14,  -2, 124,
     -72, -79, 118,  48,   9, -93,   3, 113,  26, -24,  13,  98, 105, -25,  27, -56,
     -12, -71,   8,  20, -41, -58, -89, -92,  54, -71, -97, 127, -61, 101,  28,  55,
      15, -81,  88,  83, -38,  67,  11, 104,  77,-117,  96, 119,  62, -97,  78,  37,
     -41,  98,  17,  90,  43, -54, 121,  18,   4, -25, -92,  47, -18, 110, 118,  68,
     -65,  55,-122,  83,  -2, 111, -31, -60, 126,   8,  92, 104,   5, -11,  13,  88,
     118, -44,  61, -55,  28,  77,  98, -13, -33, -63, -93, -34,  94, -21, -46,  61,
     -72, -62, 111,-106, -22,  19, -69, -56, -71, -39, 101, -17, -21, -29, 118, -97,
      94, -44, 116, -47,-106,   5, -69,  64,  40,  47, -78,  53, -48, 127,  59,  23,
      93,  23,  13, -67,  45, -32,-116,  80,-114,  44, -87, -17,  91,-103,  42,  29,
      93, -83,  76, -13, -18, -35, -29,   5,-100, -19,  39,   0, -85, -35, -14,  43,
     102,  13,  45,-107, 115, -47, -37, -70,-105,  74, -66, -55, -81, 121,  71, 109,
      92, 103,  -5, -84, -44, -53,  55,-120, -91,  46, -96,-115, -99,  48, -92, -90,
     -69,  64, -76,-118, 103,  96, -80, -60, -79,  56, -63, 110,  83,  22,-125,  97,
      58,  73,-109,  53,  77, 116,  20,   2, -19,  51, 107,  25, -69,-123,  30,  93,
    -110, -26, 112,   0, -71, -37, -23, -97,  41,  23,  38,  28,-123, -83, -85,-102,
      60, -96,  43, -82, -97, -86,   2,  37,  79, -94,  30,  70, -48,-107, -87,-104,
      98, -31,   6,  68, -33,  38,-108,  -5,-102, -64, -52,  55,  44,  63,-111, 125,
    -113,  83,  61,  23, -16,  65,  61, -92,  74,-107,   0,  37,  82,  -9, -67,  -2,
     -63,   7, -10,  71, -66, -76,  -7,-114, -69, -37,  -3, -59,  15,  96,  11, -54,
    -111, -92,  16,  47,-114, -80, -46, -46, 116, -75,-111, -37, -93, -95, -24, -49,
    -104,  26,   0,-107,  92, -55, 117, 110, -17, -69,  85, -35, -85,  13,  -3,  89,
      58,  96,  60,  36,   0, 124, 117,  89,  70,  20, -61,  95,-124, -69, -24,  22,
      15, -82,-100, -71, -38,-123,  49, -64, -38, -42,   3,  91, -89, -40,  49,-116,
      84, 117,  27, 116, -22, -22,-100,-118, -65,  -6,   2, -72,  29, -81, -44, -77,
      50,   4,  60,-112, -19, 119,-113, -21,-117, -90, -10, -87,   5, 107, -76,-100,
      83, -10,  97, -49,  32, 108, -83,  76,  33,  79, -84, -17, -94, 117,-111,-110,
     101, -51,  25, -54,  38, -78, -10,   9, -42, -63, -91,  52, -84, -53, -41, -12,
      51, -18,  94,  46,  86,  55, -89, 121,  73,  18, -85, -83,  29, -21,  45, -32,
       3, -79, -88,-108,  81,  14, 114,  63,  68,   2,  80, 112,  56,-100,  38, -96,
    -107,  49,  85, -87,-108,  98, -93,-118,  56,  88,   4,  10, -41, -66,  65,  89,
     -45, -57, -59,-114, -56,-120,  73, -62,  48,  11,  86, 117, -34,-105,  63,-122,
     -70,-113, 101,-126,  -2, -19,  39, -53,  95,  60, -17, -36,  80,  65, -26, -40,
    -117,-106,-113,-121, -88,  91,  76,  88,  31,  32, -96,  51, -56,   5, 116,  94,
     -68,  60,-101,-120,-120, -84,  50, -35,-123, 124,   8, -27,   5,   5,  -8,  29,
      98, -50,  -3,-126,  91, -49, -58, 126,  21, -96, -60, -37, 123, -18, -69,  18,
     -24,-113,  92,-123, 101,  74,-108,  57,  69,  26,  20,-114,-112,  58,-100, -66,
       0, -85,  74,  78,  87,-114, -18,  88, -35,  50,  23, -39, -57,  39, -93,  91,
      19, -99,  52, -17, -75, 117,  56,  24,  89,  11, -15, -79, -88, -17, -11,  59,
     -15,  24,  84, 125, -45, 102,  78,-110, -42, -71,  42,  14,  -1,  67, -42, -30,
      93, 120,  70, -72, -98, -74, -20, -67, 102,  43, -21, -57, -30,  -6,  54,-104,
      89, -95, -60, 125, -79,-101,  35, -27,-104,-126,-107,   6, -68,  70,  91, -90,
     -41, -90, -54, -66,  73, -39,  -1,  44,  82, -50, -74, 122, -46,  43,  45,   4,
     -69, -91,  -3,   3,  69,  53, 105, 120,  58,-108, -24,  28,  23, -81,  21, -38,
     -41,  85, -20,   7,  16,  16, -73,  25, -42,  39, -90, 126,  69, -21, -50, -28,
      56,  39,  51,  99, -11,  43, -15,  35,  -6,  70,-126, -72, -52, 113,   2, -34,
     -24, -12,  93, 117,  87,  87, -76, -59,  24,  40, -76,  63, -76, -60, -49,  88,
      59,   8,  81,  79, -28,  71, -75,   1, -97, -19,   5,-107,  -9,  39,  29,-113,
    -103, -38,  87,  94, -48,  56,  20, 123,-103,  12,  24, -49,-115,-114, -12,  49,
      51, -81,  91, -31, 118, -97,  85, 104,  82,  78, -35,  54,  20, -19, 125, -53,
     -22, 102, -54, -88, -48,  66,  91, -98,  31,  17,  43,  43, 117, -39, -51,  21,
     -18,  -7,-109, -89, 111,-110,  23,  65,-124, -70, -31,   2, -40,  38, -69,-121,
    -127, -39, -35, 114,-116,   8,  20,  51,  35,-125,  33, -45,  69, -79,  55,  32,
      39, -82,  43,  60,  -3, -41, -85, -53,  67, -23,  51,  61,  44,  44,  28,   5,
     -77,  87, 118,  -9, 110, 126,  -4,  57,  37, -67,-115, -12,  73, -44,  72,  39,
      50, -54,  -8, -81, -64,-104, -95, -74,  20, -15, -59,  92,   6, 107,  34,-123,
     105,  91,  34,   9, -12,  -5,  68,   3, -82,-112, -95, -63, -34, 100, -66, -46,
     -70,  12,  30,   8, 115, 126,  86,  78, -34,  20, -38,  72, -83, -72,-117,  28,
      48,-126,   3, -31,  74,-117,-115,  31,  23,  84,  23, 114, -47, -26, 121,-100,
      75,-124,  -3, -88,  25,  76,-119, -85, -40, -62, -30, 115,-101, -19, -11, -56,
     -56,  55,  30,  79, -24,  27, 100,  89, 107, -59, 123,  80,  75,  43, 123, -15,
      61,  50,  59,  64, -79, -38, -27,  63,  55,  85,  73,  24, -91,  34,  98,  36,
     100, 127, -36,  57,  10, -11, -66, -65, -80,  33, -91, -17,   6, -16,  90, -14,
    -106, 125,  88,  41,  65, -94,  68, -74,  -3, -82,  64, -65, -63, -99,  56, -52,
       5, -43,  70, -69, 112, -45,-101, -66,-108,  -8, -63,  98,   4, -68, -12, -77,
     -82, -51, -99, -79, 111,  42, 107, -62,  91, -35, -90,  77,-112, -24,  81,  30,
       5, -37,-108, 125, -83, -62, -67, 104,  67, -11, 116,-114, 100,-112, -28,-113,
     127, 105,  22, -72, -57, -13, -45,-122,  40,  29, 103,  -6, -39,   3, -78,  32,
      69, -88, -46,  93,   1,   8,  56,  20,-109,  77, 107,-113, -96,  51,  27, -30,
      10,  52,   1, -91,-104, -16, 107,  15, -36, 104, -28,   2, -97,  60,  51,  75,
     -44, -16, -84, 118,-105,  38,  52, -87, -34,-116,  14, 126, -18, 124, -95, -27,
     102,  96, -45,  45,  98,  68,  33, -88,-108,  29,   0, -67, -53, -27,  -1, -28,
     -29, -98,  93,  28, -90, -19, -21,  26,  28,  37,  50,-101, -50,-123, -12, -18,
      60, -85,  33, -49, -30,  56,-109, -40, -28,  55, -76, 114, 126,  81, -51,  42,
    -106,  94,   4, -82, -44,  76,  94,   5,  -5,  64,  83,  67, -29,  36,  91, -88,
     -28,-113, -23,  69, -77,  11,-118, 101,  81,   6,  52,-101,  88,  55, -97, 122,
    -121,  33, -83,  56,-109,-106,  -9, 125, -57,  29,   5,  87, -54,  14, 114, -43,
     -15,  99, -43, -30, -50,  79, 109,  33,  31, -28,-124, -83, -90, -98,  39, -92,
    -105, -30, -64, -90, -90, -62,   9,  66,  90,  64,  33, 104,   5,  34, -22, -44,
     -43, -89,  75,-113,  44,  93,  -1,-109, -18, -40, 123,  49,  56,   4,  53,  57,
    -110, -70,-124,   2,  95,  28,   0, 108, -83,-108, 106, 102,  46, -65, 119,  67,
      44, -70,   3,  82,  92,  16,   6,  50,   7, -21,-105, -95,  66,-121,-114, 103,
      52,-126, -48,  67, -21,  -8, -10, -76,  56,-101,   2, -84,-115, -91,  94, -82,
     -56, -92,  60, -14, 113,  42,   8,  40,-117, 114, 116, -57,  33, -76,  12,  69,
     112, -41,  49,  55, -71,  33,  39,  67, 127,-117, -76, -90, -88, -12,  96, -13,
      43, -31, -46,  85,  40, -38, 105,   0, -79,  -4,  44, -34,  87,   8,  -8,  91,
      -9, -22,-101, -35, -26, -81,  22, -90, -70,  16, -59,  35,  48, -50,-105,  -3,
    -103,   4,  57,  31, -13, 113,-101,  97,  76, -20, -88, -87, 107, -68,  95,   1,
     -10,  30, -72, -18, 111, -66, 107, 126,-114,   8, -83,  31, 124, 101, 108, -73,
      11, -67, 101, -78, -88,-124, -81, -79,-107,  93,  71, -62,  72, -20,  70, -45,
      16, -30, -79,  22,  64,  64, -37,   5,  67,-113,-109, -31, -70, -32,-103,  23,
      44,  74,  38, -26, 110,  57,   7, -74,  38,  23,  47,  71, 105, 114,  33, 118,
     105,-126,  35, -82, -52, -51,  -4,-124, -67,-120,  38,  99, 126, -13, -61,  90,
     -98, 120,  55,   1,-102,-122,  11, -22,  87,  36, -17, -70,  -5, -86,  42,  27,
      79, -13, -56,  85,  49,  53,   7,  95, -69, -25,  75, -93,  78, -37, -95,-107,
      87,  71, -54, -97, -64, -73,  59, -72, -72,-119,  25,  48,  39,  17, 118,  -7,
      91,  37,-106,  79,  21,  39, -81, -16,  97, -72,-127, -62,  -3,  82,  36, 106,
     -11, -28, -68, -72,  60,-107, -65,  98,  20,-115,  52,   2,  90,  46,-126, -75,
     -61,  51,   2,  63,   3, -44,-101, -76, -25,  13, 111, -66,  42, -88,  54,-124,
      40, -86, -81,  15, -32,  -7, -49, 115, -53,  11,  90,  42, -45,  13,-106,  12,
     -17,  66,  88, -76,-106, -28,   9, -31,  33,   1, 111, -23,-106, -50,  27, -62,
     -59, -41,  63, 112, -38, -77, -20, -38, 124,  -9,  46, 105,  33, -64,  27, -25,
     -20, 122, -56,  -8, -86, -82,  26,  64,  35, -43,-112,  -8,   1,  69,  36,  94,
      72, -34,  34,  63, 116, -20,  38, -27,  60, 105, 106, -87, -75,  65,  33, 103,
     -47,  88,  47, -77, -95,  51, -87,  75,  15,  -6, -57, 123,  56,  71,  68,  21,
     112,  21,   5, -57, -55,  60, -42,  58, 115, -15,-102,  42,-125,  73,   7,  -3,
      18,   4, -45, -55, -22, 100, -93, -45, -78, -19, -93,  66,-101,  42, -59,  -7,
     -76,  58, 114, -71, 115, -44,  15,  51, -76, -14,-110,  50, -21,  99, -57, 108,
     -91,  27, -49, -81,-103,  40, -68,  18, 122, -47,-118, -91, -97,  -9,  62, -52,
     -90,  36, -51,  19, 110, -53,   3,  78,  49,  64,  69,  10,   9,  56,  50,  43,
     -30,  83, -67, -87, -39, -63,  41, -68,  40,   3, -88, -61,   6,  59, -26, -68,
     -52,-103,-121, 120,-103, -95,  94,  42, -16,  38, 110,-102, -65,  92,  71, 126,
     -47, 113, -40,  55,  97, -84, -75,  21,  87,-107,  89, -40, -24, -41, 105, -94,
      19, -89, 109,  76, -68, -51, -30, -24,  81,  16, -18,  56, -11, -94,-100, -44,
      26, -93,  13, -59,  50,-120,  -8,-114, -43,-123,  -8,  68,-102,  60,  21,   1,
      25, -42,  53,  71,  71, -59,  39, -89,  -1,-126, -78,  33,  95,-115,  15,  35,
     110,  39,-101, -90,  34, -72, 109, 107, 114, -53,  55,  41,-118, -60, -74, -33,
     115,  88, -52,   8, -78, -57,-110,  36,  40,  86,  94, -86,  62, -93, -32,   4,
    -114, -87, -58, -95, 110, -54,   0, 126,  17, -22, 109, -70, -81,   9, -18,  75,
    -116,  30,  54, 120, -90, -64, 110,  33,-117,-107,  73,  17,  17,  96, -66, -86,
      29,  97, -60,  46, -88, -83, 102, -97,-121,  70, -35, -26,  76, -81,  38, -47,
    -101,  48, -46,  93, 106,  89, -45, -67, 100, -12,  53,  83, -56, -97,  32,  23,
     -58,  22,  74, -38, -65,  57,  73, 115, -90,  99,  67,  51, -47,-121,   2, -54,
     -53, 108, -88, 110,   1,  86, -55,  34,  14, 108, -81, -75, 114,-102,  34,-112,
    -107,  25,  13,  19,  -7,  62, 125, -57, -45, -45,  67, -39,  45, -14,  27,  84,
       4,  -6, -59,   4, -60,  87, -28, -94, -66,   9, 106, -51, -60, -24, 119,  88,
     -89,  29,  74,  68,  -3,  59,  21, -76,-113, -33,-111, -27,  84,  87,-118,-109,
      43,   0, -89,  78, -72,-107,  63,  27, -27,  49, 104,-118,  32, -72,  -7, -19,
     -28, -79,  77, -31,  98, -37,  86,  11, -29,  52,  73,  -4, -19,  20,  22, -19,
      65, -25, -12,  27, 124, -61, -68, -82,  48, -13, -28, -75,  99, -14,  27, -98,
    -100,-110, -34,  -7, -65, -38,-125, -38, -97, -94,-126,  50, 110,  31,-103, 124,
     121,  -8,-100,  56, 117,  71,  32,  28, 121,-108, -89,  84, -90, -30, -55, -65,
    -120,  17, -25,  13, -50, 112,  23, 117, -38,-126,  71,  83,-112,  32,  41, -90,
      13, -65,-123,  93,  -2,  72,  57, 125, -16, -18, -55,  32,  -4,  58, -36, -94,
      92,  83, -38,  48,  -2,  66, -28,   9,-112, -83,  72, -30,-118, -84, -22,  55,
     -35,  62,  91, -40,  76, -95, -22,-102,-114,-111,-100,  85,  11, 114,  10,  33,
     -80,  10, -29, 110, 110, -77,  31,  35,  16, -95,  39,  76, -39,   4, -97, 109,
     -99, -74, -51,  83,  51,-125, -80,  64, -24,-120, 118, -89,   3, -64,  60,  70,
     -26,  40, 104,  80, -22, -15,  98,-118,-121, -75,  83, -88, -55,  33, -80, -50,
      -8, -69, 125, -85,  89,  -8, -94, -97,   0, -37, -67, 117,  -9, 109, -85, -80,
      24, -58, -80,-103,-108,  64, -55, 122, -80, -37, -32,   0,  94,  85,-124, -23,
      83,-127,   9, -61, -22, -20, -27, 100,   9, 103,  58, -38,  -2, -28,  83, -79,
     111,  20,  28,   4,  14,  43,  39, -73,  21, -37,  35,  12, -81,  60, -11,  13,
      44,  39,  63, -74, -99,  43, -67, -98, -94, -48, 125, -87, -51, 107, 118, -69,
      97, -92,  66,-124, -24, -64,  52,-123,  -9,  50,-115, 101, -35, -85, -70, -41,
     -77,   3,  34, -17, -19,  72, -51,  31, 100, -71,  30, 114,   8, 121, -48,  16,
     -48,-126, 126, -66, 120,  39, 103, 119,  17, 127,  68,   6,  39, -78,-124, -62,
     -17, -69,   4,  40,  40, 100, 118,  99,  31, -75, 113, -83, -89, -46,  19,  46,
    -124,  71, -83, -52, -45, -43,  66,-117, -77,-121,  71, 123,  41,  23, 104, -62,
    -110,   3, -61, -12, -11, -46,  -3, -30, -98,  93,  51,-117, -98,-102,-111,-112,
     -87,  88,  83,  72,  29,  57,  61,  99,  59,  60,  77,  14, -73,-106, -21,-104,
     -84,-121, -51, 119, -31, -66, -25, -50,  44,  34,-120,   3,-118,  45, 111, 104,
     -75,  62,  74,  93, -61, -12, -71,-121,  40, -17, -64,  88,  -1, 126,  75,  94,
      69,-100,-110, 105, -92, -28,  28, -73, -70,  -9, -35,  45,-108,  -3, -83,  27,
     -97, -77,  77, -67,  60, -58, -67, -51,  97, -26, -65,   9, -29,  74, 125,   7,
     -12, -40, 120,  -4, -82, 119, 117, -16, -39,  46,  84,   0, -43, -50, -44, -97,
      71,-100, -26,  85, -24, -52, 114, -95,  98,-111, -22,  33, -33,   9, -75,  18,
     -93,  75,  21,  -5,-113,   0,  16, -60,  45,-108, -74,  60, -90, -65,  38,  58,
    -114, -95, -14,  24, -12,  37,  65, 114, -38, -86, -60, -89, -27,  95, -39, -89,
       6, 125, -79,  71,  82, -25,  30, -17, -60, -19,-103,  53,  84, -49,  17, -68,
     -95,  42, -93,  72, -58,  81, -33, -33,  64,   3, -76,  89, -41,-101, -21,  19,
      28,  85,  11, -70, -61,-101,  60,-100,  27,  25,  73,-108, -75, 104,  18, -11,
      63, 102, -60, 102, -99, 121, -85, -59,-102,  77, 123, -52, -44, -56, -88,  73,
    -112, 119, 109, -97,   7, 125,  90,  55,-121,-110,  75, -31,  43,  61, -20, -91,
     -29,  94, -43,-111, 117,  46,  10,  84, -23, 123,  91, -56, -33, -57,  40,  35,
       6, 118,  -7,  72,  40,   5,-116,  40,  36, -95,  75,  -8, -45,  82, -40,  31,
      30,-114, -20, -70, -76,  39,-124, 119, -27, -51, 107,  -3,  29,  50,  94, -94,
    -106, 125,-125,  53,  28,  13,  73, 125,-115,  29,  55, -49, 100, -11, -85,  90,
     113,-102,  64, -72,-125, -61,  90, -91, -94,  61, -24, -89, -69,  75,  31,  66,
    -102, -11,  75, -59, -84, -30, -42, -80, 115,  -4,  27, -96,  28,  14, 110, -22,
      72, -50,  20, 108,  32,  54,  96, 108, -74, -77,  13, 126,  -3, -43,   9,-111,
     -82, -89,-120,  56, -44, -84,   3, -45, -27, -47,-126,  48, -99, -71, -79, -43,
     -86, -39, -65,-111,  94, -49,-103,   5, -96,  69,-111,  -9, 113, -87, -76,  26,
     122, -29,  38, -88,  36, -63,  29,-104,   6, -67,  46,  63,  88, 125, -10,  43,
    -122, 103,  29, -20, -17,  66,  85,  78,   3, -33, 113,  34,  11,  25,  33,  54,
      14,  95,  91, -15, -84,  19,  31,   6,  99,-103, -54,  93, 112, -19, -78, -20,
     -11,   5, -57, -48,  40,  31,  41, -31, -42, -38, 115, -27,  27,   6,  96, -33,
     -17,  87, -86,  24, -25, 123,  56,-124,  86,  52,  15, -67, -89,  33, -15,  92,
     -60,  35, -64,  35,-115, -28, -83,  27, -47,  69, -98,  14,  24,-121,-118, -49,
      28, 118,-104,  52,  49,  43,   4, 119,   0,  86, -60,  78, 126, 104, -50,  88,
    -103,  45, -40,  40, -22,-125, -68,-116, -18,  86,  60,  73,  78, -33,   2,   2,
     -98,  25,  56,  28,  62, -97,  66, -74,  96, -65,  -2,  -3, -59, -35, -80,  18,
     105, -47,   2,  92, -12,  84, -14, -15, -87, -95,  28,  83, -93, 104, -36, -19,
     100, 101,   6, -57, -83, -58,  71, -45,  49, -77,  -5, -38,   1,  18, 125, 102,
      50, -88, 106, 100,  98,  -5, -84,  65, -28, -39, -28,  15, -42,  48,  38,   2,
    -113, 111, -22, -13, -11, -34,  44,-123,  95,-101, 127,  33,-110,  16, -43, 115,
      65,   2, -18, 126,  43,   4, -26, -45,  52,  22,  88,  14,  21,  -6,  67, -22,
      89, -44,  49, 100,  68, -40,  52, -74,-112,  74,  78,-121, 114, -14, 103,  73,
     102,  85, 120,  33, -69, -28,  64, -87, 109, -75,  95,  -4,  87, 116, -20,  50,
     -69,  76,  81, -52,-121, -17, -84,  81, -61, 113, 120, 104,  25, -59,  78,  51,
     121, -31,-112, 127,  86, -71,  57,-127,  15, -35, -30, -65, -57, -12, -64,  -9,
      20,  54,  45, -66,-117,  85,  95, 122, 117,  34, 100, -13,  73, 116,  75, -21,
     -31, -53, -34,  81,  51, -64,  54, -31,  15, -33,   5,  58,  59,  64, -28,  48,
     -66,  -6,  21,  47, 105, -50,  88, -48,  13,  83,  57,  92,  80, -57, 125, 111,
     -18,-115, -50,  85, 115,  84, -26,-113,   4, -31, -96,-100, -88, -75,  64, -30,
     -16,  25, 117,  65,  37,  62,  56,  48,  -1,  17, -10, -27, -58, -37, -18,  20,
       0,-100, -41, -31,  53, -42,-125,-106,  -1, -79,  -1,  19, 110,  40,-119, -30,
      75, -61, 108,   7,-104, -66, 103, 125,  92, -46,  68, -71, -29,  50, 119, -15,
      -1, -71, -25,-111,  91,-121,  47, -58,  -6, -55, -25,  12,  36, 112, -43,  22,
     102, -53,  93, 116,  88,  18,  56,  -5,  25, 121, -63,  74,   2, -82,  36,  74,
      17,  86, -34, 105,  38,  77, -58, -14, 104,-114, -24,  71,  62,  89,  61, 114,
       0,  32,  88,  51,-101, -34,  13,  65,  11,  70,  86, -60,  29,  15, -69,  -3,
      12,  81, -10,-106,  -3,  86,  18, -46, 107, -87, -44, -16,  60,  85,-112,  74,
      56, 100, 102,  70, -79, -47, 111,  25,  10, 106,  95,  58,  97, -98,  65, 118,
    -115, -70,  75,   5,-105, -59, -45, -45,  96,  41,  60,-124, -18, -46,  89, 115,
     -19, 120,-123, -44,  70, -36, 107, -72,  75, -76, -77, -14, 113,  22,  34,-125,
    -113,-110,  81, -67, -43,  28,  21, -23,-126, -13,  61, -67,  53,-123, 104, 114,
    -126, -11, -22,  87,  10,  28, -76,-107,  49,  31,  84,  88,  33,  10, 105,  77,
      97, 126, -25,  55,  48, -83,  35, -18, -13, -81,  62,  50,   8, -87,  14,-102,
     -41, -32,  97, -21,  25,  95, -19,  97, -92, -34,-103,  15, 116,  40,  32, -56,
     110,  -7, -59, 124, -20, -33,-118, -82,  79,  -4, 116,-106,  29,  56,  31,   8,
      20,  48,  92, -42, -10,  35, -47, -82, 118, -78, -68,  30,-107,-118,-111, -96,
     -18,  84, -40, -18,  25, -50, -17, -29, -40, -28,-124,  98, 121,  92,-126,  64,
      19,-103, 110,  70, -90, 118, -95, -12, -87, -89, 119,  18, -61,  70,  95, 106,
     110, 103,  35, -40, 108, -96, -84, -17, -55,  29, 103,  -2,  14, -20,  53,-101,
    -115,  36,   9, -24, -42,-114,  46, -20, -14, 100,  60, -71,  40, -93, -78,  54,
     -95, -56, 101,  61, 109,  97, -48,  34, -31,  50, -38,-127,-103,  69,-106,  25,
      91,  61, -22, -74, 107,  17, -24, 112, -72, -15, -99, -95, -26,  51, -41,  48,
      78,  96,-116,  70, -90,  50, -33,  53, -73,  37, -95, -84,  29, -41,  52,  47,
      31,  59,  75, 105,-107,  18,  63, -72, -60, -59,  18, -34,  42,  28,  40, -63,
      68,  42, -94, -76, -51, 111, -44,-122, -91,-119, -25,  75, -13,  86,-115,  -8,
      73,  44,  90, -57,   0,  45, -84,  80, -48,-103,  67,  52,  97, 100, -56,  36,
     127, -65,  -7, 104,-101, 109,  -3, 100,  31,  44,  69,-110,  32, 108, 116, 119,
      37,  34,  13,  27,  28,-116,-104,  30, -47, -50, -78,  76, 118,  32, 113,  98,
     -72, -88, -73,-103,  21, -55, 105,  29, -36, 123, 115,  71,  74, 121,  26,  97,
    -111,  14,   1,-117,-105,-121, -52,-113, -20,  79,  29,  44,-119,  86, -90, -50,
       4, 109, 127,  72,  58,   7,  42, -90, -59, 123, 122, -45, -66, -69,  -4, -70,
      38,-108,-101, -57,  70, -45,  -7,  40,  73, -49,  59, -54,  37, -12, 108, 122,
      70, 106, -92,  39, -77, -57,   6,  61,  56,  94,  15, 108,  99,  89, -69,   8,
      60, 121,-124, -44, -40, -54,  81,-116, -36,  54, -24, -90,  28,   6, 122,  63,
     123, -80,  66,  13,  54,  -8, -73,-115,  86,  80, -86,  37,  60,  15, -46,  97,
      36,  56,  39,  56, -90, 107, -54,  85, 100,  38,  25, -99, -16,  28,-106, -99,
     125, -43, -38, -63,  37,  -7,  74,   3,-123,  -4,-113,  83, -98, -72, -10, -77,
      10, -10, 115,-105,  19,  56, -95,  35,  93,  73, 111,  56, -27, 107, -70,  21,
      67,  95, 106,-105,  57, -75,  71,  51, -81,  85, -10,  11, 120,  40,  22,-123,
     -76,-120, -42, -39,   8,  48, -81,  26, 106, -80,  40,-115,   8,  61,-118, -42,
      96, -70,  57,  29, -85,  61,   8, -99, 114,  -2,  62, -72, -92,  61,  44, -57,
      63,   1, -38,  73,  30,   2,  69,  11, 111,  81, -36,  -9, 116, 100, -78, -57,
     -34,  96, 109,  77, -57,  98,-119, -20, -31,   9,  15, -70, -75,  77,-108,  -2,
     -78, -46, -57,  53, -11, -51,  84,-105,  68, -64, 106,-126,  14,  31,  20,  80,
     -99, -21,  92,  99,   0,  15,  67,  71,  99,  87, -22,  38,  -4, -97,  82,  26,
    -112,  45, -55,-109,  27,  59,   4,-126,  20,-125, 108, -59,  94,-124,-102, -12,
      66, 112,   5, -37,-116,  21, -30, 104,  -5,  67,  88,-102, -15, 100, -19,  17,
      95, -68, 100, -26,  24, -44,   7,-114,-110, -22, -42,  29,-117, -84, -74, -15,
     -64, -92,  25,  62,  47, -57,  90,  28,  29, -73, -65,  -6, -67,  48, -49, -88,
     -88, -95, -15,-126,  11, -51,  13, 111,  94,  19, -21,  50, 107,  -3,-102,  68,
    -124,  67,-105,-100,  72,  48,  16,  81,  89, -11, 126, -36, -83,  88, -21,  95,
    -111, -99,-117,  26,  84, -25,-104, -32, -39,  36,  39,-101, -20,  36, -61, -24,
      29, -25,-119, -70,  70, -64,  81,  -8,  -7,  69, -30, -66,-100,  44,  -8,  79,
     -11, -22, -51, -76,  84,-103, 102,-120,   6,-112,  71, -73,  17, 106,  38, -82,
      75, -15,-124,  -3,  79, -18,  66,  52, -11, -45,  58, -33, -84, -46,  96, -55,
     -67, -93,-113, 121,   9,  58,  69, -38,  76, 117,  61,  54, -17,  87,-104,  63,
     -35,  17, 100,  27,-121,  57, 109,  36,  92,  83,  92, -40,  -7,  88, 104, -90,
     -81, -39,  69,  95,  20, -98, -50,  91, -39,-101, -50,  78,  -2, -83, -48, 115,
     -17, -15, -88, -50,  80,  73, -16, 100, -30,  93,-119, -39,  90, 102,  65,  43,
      80,  53, -62,  -9,  41,  22,  98,  -7, -82, -72,  88,-125,  94,-113, -28,  76,
     -23,  82,-102,   3,  21,  99,-103, -41,  40, 122,  88,  88,   4,  16,  91,  94,
      77,  81,  96, -98, -53, 121,  11, -82,   1,  37,  83,  79,-114, -12,-122,  99,
     -83,  32,  18,  32,  16,  55,  32,-104, -34,  12, -44,  66, -46,  83, -90,  68,
     -80,   7, -46,  35, -73,  75,  19, 116,  54,  27,  84, -71,  34, -28,  62,-121,
     -18,  39, -10, -67,  -9,  89, -74, -34, 125, 105,-118,   8,-110, 108, -15, -21,
     -58,  17, -90,  76,  -2,  17,  87, -80, -83, -20,  73,-112,  75,   0,  16,  16,
    -113, -64,  65, -22,  15, 113,-115, -13, -35,-100, 115, 117, -48, 113,-118, 122,
      85, -73,  25,  76, -46, -37,  33, -90, -97, -64,  61, -34,   2, -77, -78,  38,
     -99,  43, -25,  44, -30,  88,-113, 100, -59,-116,  16, -70, -10,  77,  74,  25,
     121,  -9,-117,  81, -71, -82,-109, -44, -44, -50,  24,  64, 111,-103, -89,  23,
    -102, -33,  32,  71, -72,  43,  37,  91, -47,  64,  64, -66,  31,  44, -57, -12,
     -16,  69,-127,   0, -80,  37,  46,   0,  11, -47, -47,  62, -94,  69,  39,  98,
     -61,   2,-117, 105,  45,  31,  59, -55,  26,  76,-104, 117, 100, 118,  78, -52,
      21, -96,  65, -88,  93, -66, -86,-109,  54, -80, -77, -84, -49, 112,  -3, -61,
     -84,-122, -34, -99,-120,-101, -46,  64,-110,  45,  31,  97, -80,  75,  93, 121,
      78, -96, 114,  80, -73, -85, 111, -87,  70, -24,  57,-104,  57,   3, 102, -79,
     -99, -77,-107, 122, -96, -76,  79, -64, -71,  44, -26,  85,  35, -54,  25,  93,
     -34,  60, -21,  11,  59,-112, -11,-103,  57,  27, -44,-108, 108, -47, -57,-101,
      20, -60,  87,  46,-126,  17, -68,-123,  30, -75, 102,  19, -74, 122,  12, -85,
       4, 117, -19, -19, -10, -56, -86,  20, 100,  60,-103, -25,-126, -49,  43, -53,
      87,  -6,  43,  98,  46, 101,  78,  17, -52, -51,  95,-113, 112, -44,  61, -43,
     115,-118, -37,  93, -57, -57, 101,  84,-100,  20, -70, -72,  29, -96,  -8, -62,
      90,  14, -72, 108,  82, -60, 117, -59, -53, -29, -85,  48,  15, 100, -66, -84,
     -36, -90, 113,  55,  75,  63, -65, -91, -18,  84, -43,-125,  41, -76,  11,-123,
       2, -27,  97,  56,-118,  74,  74,  42, 109,  77, -71, -30, -38,   1, 115,  29,
     -48, 112,  51, -59, 103, -40,   4,  -5, 108, -60, -42,  41,  98, -98, -74, 114,
      70, -39, -36,  -8,  44,  16,  70,-113,  81,-112,  97,-116, -95, -81, -70, -25,
      39, 100,   6,   8, -46,  76, -99, -51,-102, -73,  22, -95,-101,  83, -97,  27,
     -38, 101,  53,-112, 100, -22, -51,  44,  55, -50, -38, -87,  24, 116, -21, 126,
     -82,  75, 109,  48, -99, -44,-105,  26, 127, -32, -86, -59,  18,  18, -69,  64,
    -105,  31, -19, -95,  34,  44, -15,  76,   2, -54, 115, 113,-103, 113,  70,-100,
       5,-118,  23, 110, -33,   2, -69,  10,  77, -72,  14, -37,  63,  51,  50, -31,
      25,  38,  46,  19,  93, -64,-113, 117,-112, 102,  29, 106,  16,  82,  56,   6,
     -35,-126, -63, 115, -57,  64,   2, -49, 125,-115,  21, -10,-108, -73,  49, -99,
      76,  32,-101, -54, -92,  76,   8,-126,  11,  -4,  36,-118,-118, -38,  48,  42,
     -56, -72,  47,-120,  14, -19, -66,   5, -72,  16, -89, -24,   3,-119,  28,  64,
     116, -75, -74, -50,  99, -24, -50,  61,-117,  12, -13,  32,  59, -44,  35,   6,
     -93,  97,  65, 107,  56, -65, -18, -29,-118, -23, -39,-126,  88, -90,   0,  72,
      27, -84,  30,  65,  90, -46,-118,  27, -70,  71,  46,  69, 119,  21, 103,  36,
     -81,  76,  49, 121, -65, -42,  82,-111,  34,   9, -84, -85,  79,-123,  63,  59,
      38, -23,-120,  77, -95, -56, 113, -50, -62, 120,-105, -86, -16,  73,  98,  65,
     121,-123,  30, -97, 104, 111, -50,  83,  33,-101,  26, 121, -49,-127, 121, -22,
     -18,  54,  27, -50,-102,  83,  -4,  44,  92,-123,  91,  64, 113, -68, -45,  41,
     108, 125, -21,  10, -84,  49,  86,  76, -39, 118, -96,  -2,  14,   9,  66,  28,
    -107, -81,   8,  49,   4, -37,-114,  73,  -1,  10,  -8, -60, -57,-111,  53, -58,
     -51, 125, -29,   3, -29, -53,-126,  90,  -7,  56, 117,-126,  44, -97, -11,  88,
    -109, 124,  21, -27,-122,  22,  -1, -72,  -2,-124, 127, -43,  -5,  72,  54,  99,
     112, -79, -28,  47,-116,  55,-126, 105,  55,  17, -18, 124,  60,  78,  83,-121,
    -113, -77,  39,  31, -44, 120,-103,  70,  -5, -21,-121,  58,  69, -46,   4,  27,
     -34,  29, -17,  96,  56, -99,  76, -41, 111,  26,-120,  60, -94,  96, 114,  50,
       8,  26, -18,-106, 109, -43, -48, -78, 125, 112, -38, -61,  78, -20, 119, 102,
      66,-104,  51, 124, -32,  97, -23, 120,  39,-102,  -5,-114, -27, 106, -68, 114,
    -102,  42, 118,  39, 101, 125,  36,  72,-119, -18, -54,  82,  45,  29, 110,-104,
     115,-101, -39,  33, -40,  46,  70,  83, -81, -81,-114,  -2, -92, -46,  86, 114,
      82,-127,  17, -85, -32, -18, 113,  34, -59,  36, 115,-112,  80, -72, -88, 101,
    -127,  61,-105,  30,  31,  92,  82,  47, -30, -85,  34,  -1,-107, 116, -47,-126,
     102,  20,  59, -88, -24,  37, -63,  51, -68, -74,-124, -55, -64,  67,  18, -82,
      17, -70, -19,  99,  56,  38, -56, -95,  64,  17,  31, 121, -39,  76,  15, -67,
    -114,  29, -51,  50,  51, -11,   9,  32,  -8,  96,-108, 122,-119, -74,  53,-105,
     -60, -88,  57,  20,-111, -10, -74, 119,-100,  25,  -5,  20, 116, -40,  63, -13,
      41, -34, -69,-106,-101, 117,  73, -65,   7,  54, -37, -15,  55, -69,   7, -74,
    -126,  48,  53, 126, -81,  61, 114,  37, 118, 126,  77, 127,  32,  -1, 106,  84,
     -99, -50, -61,  90, -68, -50,   5,-108, 117,  -2, -79, -58,  76,  34,  -9, -43,
     102,  69,  55, -14, 122,  53, -19, 117, 101,  61,  68, -19,   2, -78,  24, -33,
     -39, 114, -85,  84, -56,-120,-117, -18, -12, -46,  43,  -4,-108, -39,-101,-111,
     -74,  51,  50,  92,  65,   9, -48,-126,  37, -53, -63, 121, -83,-119, 114, -49,
     -27,-106, -24, 120,  49,  -7, -49, -34,  28, -62, -88,  50,  94, 102,  87,   8,
      73, 108,-121, -22, -75, 126, 109,  77, -52, 115,-120, -79,  30,  74,  97, -51,
     -28, -11,-120,  92, -41, -76, -23,  53,  94, -72, -83, 113,  13, -34, -76, 126,
      56, -72,-104, -76, -64, -99, -69, -97, -31,  -4, -11,  84, -62,  98, 104, 117,
     -81, -65,  31, -91,-105,-108,  27,  77, -61, 110,  74,-107, -24,-110, 105,  62,
      47,  46, -55, 110, 107,  61,  -8,-115,-120, -92,  24,  76, 114, -82, -57,-113,
     124,  71,  -5,  19,  16, -62, -80, -52, -64,  15, -49,  58,  17,   8, 115, -45,
      34,-127,  60,   1, -74,-127,  53,  41,  42, -16,  35,  18, -66,   5,   4,  82,
     -17, -16, 123, 100, -65, 104, -92,  90, -80, -19, 123,-102,  86,  -1, -99, 115,
      13,  97,  94,-123, -60, -41,   9,-109, -28,  80, -83,  51, -10,-109, -82, -91,
      30,-105,  82,  78,-107,  99, 117,-116, 114, -56,  42, -83,  81,  87, 122, 125,
    -108,  40, -58, -95, -89, 111,  47,-114, 123,  78, -48,  -7,  58,  45,  -9,   3,
    -116,   0, -41, -55, -59,  38, -18, -19, -87, 117, -70, -24, -79,  52, -16, -22,
      95,  66,   5,  -8, 117, 116,  52,  66, 101, 118,-106, 126,  52,  24, -22, -42,
      77,  39, -76,  28, -91,  -1,  21,  34, -90,-103, -61,  27, 110,  71,  62, -43,
     -99, 100,   0,-101,   9,  45, -46,-125,  31,-117, -17,  82, 127, -33,-122,  -2,
     -57, 100,  54, -24,  67, -40,   6, 107, -76, -47,  98, -10, -46,-118, -21,   0,
     -24, -57, -33,  36,  99,  38,  37,  80, -85, -51,-114, -38, 127, -43,  91,-105,
     -10, -38, -76, -32,  38,  -2,  87, 103,  -5, 122,-109, -57, -21,  21,  12,  17,
     101, -56,  80,  15,  -2, -51, -50, -28,  67,  -6, -88,  66,  41, 114,   7,  39,
      -5,  46, -16, -92, 124,  56,  28,  -5,  54, -95, -44, -95, -95,-122,  65, -69,
      84, 103, -84,  53, -10, 106,  -4, -31, -52, 103, -70,  83, -78,  36, -12,-100,
     -95, -55,  68,  58, -75,  -6,-102,  55,  74, 100,  98, -41, -62, 101, -90,-112,
     -47,  66,  49, 124, -36, -57, -31,  72, -73, 114,   3,  72,  83,  -5,  61, -34,
      79,  82,  17, -72, 119, 114,  30, 123,   1, -32, -10,-115,  12,  42, -99, -62,
      56,  75, 123, -63,  87, -83, -94,  58, -14,  75, -55, -73,  12, -98, -56, -85,
     -46,  67, -96,  28,  22,  10,  -4,  42,  89, -86,  80,-111,  -5,   3, -77,-104,
    -108,-118,  19, -88,  78, 101, -53, -85, -23,  97, -25, -99, 123,   0, -40, 100,
     109,  -1, -49,  -4, -71,  -6, -69,  31,  66, 119,  87,-105, -73,   8, -62,-123,
      65, -36,-110,   2, 121,  45, -87,   4, 102,-113,  35,  56,  52, -89, 103, -45,
    -114,-106, -11,-117,  71,  93,-124,  79, 122,-119,  57, 127,  75,   1,  98,  53,
     -53, -70,   3, -32, -43, -82,  88,  52, -43, -67, -94, -98,  32, -99, 117, -56,
    -120,  90, -34, -40, -97,  41, -36,  82,  33,  96,  31,  71,  50, -10,  48,  42,
    -125,  50, -60,  11, -99,-121,-123, -87,-122, -93,  15, -25, 122,  78, -90, -21,
     -18, -35,  -1,  43,  36, -36,  52, -53,  85, 118, -52,  72,  80,  -2,-105,  73,
     -24, -74,  32, -16,-105, 123, -65,   3,  42, -98,  61,  38,  -2,   7, 116, 104,
     -99, -33,   4, 107,  80, -29,  98, -31, -58,  28, -37,  31, -23,  75, 115, -58,
       3,  57, -87,  75,  21, -89,  94, -19, -82, -77,  73, 111, -31,-107,-101,  39,
     -33, -19, -41,  -9,  36,  10, -85,  -2, -10,  12, -99, -88,   8, -57,  33, -32,
     -71,  40, -27, -87,  78, -17, 105, -78,  96,  80,-101,   8,  39,  -1, -28, 113,
      51, 118,  88,  81,  57,  37,  98,  29,-108,  21,-101, 114,  37,  14, -77,   4,
     -40,  45,  27,   0, -63,   7, -10,  89, 100,  66, -46,-117, 108, 125, -95,  47,
     -19, -89, 127, 110, 123, -90,  -2, 101,  44, -17,   4,-117,  28,  91,-126, -86,
       5,  15, -40,-120,  62, -65,  37,  15, -18,  23,  50,  18,  15, -16, -18,  -2,
     -12, -15, -74,  57, -93, 104,  32,-115,  40, -35, 109, 111,  88,  17, 106,  38,
      95, -86, 103,  41, -50, 126,  47, 104,-126,  13,  54,-124,  67,  38, -57,  48,
     -94,  82,  93,  -4,   2, -25, -39,  95, -50, -25, -51,  40,  80, -85, -62,-101,
     -86, -24,  70,  11,-113,  32,  75, -27, -65,  67,-121,  80,  77,  99,-104,-100,
      95,  -6, -27,  19,-112,  37, 113,  45,  -9, 117,  48,-113,  43,-112, -49,  29,
     -72,-117,  30, -54,   8, -61,  47, 101,-105,  73, -87, -43, -36, -75,-108,  68,
      75, 126, 110, -17, -93,-124,   8,  92, -59, -76, -16, 100, -12,  57, -10, -32,
     -15,  68,  65, -17, -59, -92,-127, -98, -85,  48,  81,  60,  57, 126, 118, -59,
     -90, -88, 100,-101, -41,   8,  29,  24,  73,  18,  89,-106,  91,  23, -70, 121,
     112,  88, 105, -30, -69, -81,  95,  83, 122,  88,  34, -91, -85,  -7,  68, -83,
     106,  47, -48,  98,  25,  59, -29, -27,-124,  10,  66, 119, 100,-105, 122, -89,
    -117,  63, 103, 114,  83, -75, -88,-112,  21,  -3, -99,  -9,  17,  57, -22, -46,
      42,  47, -58,-122, 113,  65, -76,  17,  24, -95, -78, 116,   2, -78,  76,  -7,
      35, -51,-112, -85, 120,  31,  84,-122,  67,  -4,  42, -36,  31,-118,-115,  76,
     -95,-123, 105, -60,  21,  86,  62,-115,  15,  11, -38,  64, 118, -90, -90,  60,
     -12,  75, -91,-117,  50, 126,-103,  93, -29,-123,   3, -56,  49, -54,  -5, -76,
      83, 108, -25, -13, 123, -91,  78,  17,  97, -53, -52, -44,-123, -84, 126, -64,
    -122, -56, -23,  12,-110,  74,  83, -73,  76, -35, -20, 111, 100, -32,  -3, -54,
       4,  46,-103, 107,  56,-102,  94,  62, -47,   5,  91, 119, -56,  38,  92, 124,
    -109,   1,  95,-126, -16,  21,   7,  59,-110,  72, -55,  82, -20,-116, 118,  71,
     -39, -58,  23, 124, -53, 114, -43,  52, -30,-105, 111, -85, 113,-101, -59, 107,
      40, -79,  23, -81,  95,-114,   8,-111,  50, 111,  84, -33, -67, -96,  95,-106,
      33, -34, 126,   2,  12, 106, 119,  21,  75,  34, -18,-112,  55,  51, -97, -69,
      59, -89,  48,  55, -37, -61, -32, -36,  27,  62,  92,-119,  58, -47,  86,-108,
      13,  12, -44, 119,-100, -92,  37,   4, -60, -50, -87,  93,  18, -65, -27, 103,
      98,-109,  39, -88, -73,  93, 100,-106,  95,  58,  70,  74,   2, 114, -76,   1,
     -46,  82,-106, -17,  69, -48, -66, -60,  54, -54, -25,  12, 112,  75, -80,  97,
      88,  62,   4,-109,  54,   5, -48,-124, -68,  27, -98,  39,  81, -46,-106, -92,
     -36,  80,  34,  93, 126, -76,  49,  -9,  -2, -44, -40,  45,  31, -46, -97,  20,
      61,  15,-126, -55,  71,  62,-124,  -8, -16,  39, -95,  31, 114, -33, -41,-120,
    -112, 110, 121,-126, 102, -83,  16,  45, -36,   7,  32, -78, 126, -75,-124, 113,
     -18, -26, -57,-120, -60, -27,   5, -11,  96, 104, -46, 117,  93, 109,  52, -77,
     -77, 104,   2,  99,  56, -73, -29, 119,-122,  55, 122,-101, -58,  12,  87,   2,
    -112, -95, -32, -45, -71,  86,-120,  84, 107,  33,  32, -89,  17, -32, -69,  21,
    -127, -57,  40, -11, -90,-127, -58,  12,   9, -94,  29, 127,  22,   7,  31,  96,
     113,-117, -75, -98,  69,-115, 102,-122,  26, -57,  -7, -15,  63,  -1, -20,  58,
     108,  75,  60,  -3, 102,  -3, 109,  77, -89,-115,  61,  47,  26, 121,  12, -39,
      17,-120,  20, 102,-126,  88,  77,-100,  88,  67,  -2, -65, -54,  29, -64, -44,
     109,  58,  60, 116,-126, -65,  40, -16, -98,  71,-115,  11,  16,  35, -47,-121,
      99, 109,  -5,-122,  21, -47, -81, -84, -81, -43, -56,  85,  -1, -18, -90,  95,
    -113, -66,  31,  51,  76, -23, -39, -54,  17, -38, -44,-123, 114,-112, -58, 107,
      60,  20,  41,-102,  78, -63, 116, -68,  32,  12, -91, -35,  71, -73, 118, -52,
      32,  30,  -7,  39,  62,  30,  15,  27, -25,-109, -86,  27, 109,-120,  11, -63,
      16,  63,  60,  57,  71,-109,   2, -61, 107,  72,-100, -65, -11, 118, -99,  17,
     -40,  37,  38, -66,  73,-104,  81, -73,  23, -39,  28, -59,  18,-125, -32,  83,
      -9,   0,  31, -17,  93, -25, 112,  96, -20, -34,  45,  65, -80, -66, -90,  66,
      54, -79,   9,  67, 114, -82, -50, -39,  32, -92, -78,  71,  11, -86, -28, -93,
     -35, -25, -99,-112,  97,  98,-126,  36,-103,  79,  96,  30,  29, -33, -64,   0,
     -93,  44,  -8, -82,  22,  75,  23,   8,  88,-124,  30, -23, -78, 122, -24, -42,
     -84, 126,  90,-109,  17, -90,  55,  -4, -99,  14, 104, -40,-114, 113, -91,  -6,
      11, -67, -82, -98,-109,   2,  87, -95,  51, -22,-118,   9, -63,  27, -38,  42,
     106, -65, 112, -75,-109, -78,  80,  45, 120,  53, -22, 100, 116,  74,  14,  83,
     -82, 102, 127,  42, -77, -90, 117,  94,  63, 114,   1,  98, -86, -81,   3, -43,
     -17,  76,-113,  56,-105,  88, -76,  60,  23, -29, -59,-112, -37, -76, -92,  61,
     -73, -70, -41,  -9,   3,  42,  22,  -5, -27, -59,  53, -46,  89,  22,  34,   2,
     109, -20, -19, 100,  27, -13, -60, -65,  77, -56,-126,-122, 122,  15,  -3, 106,
     -38,  75,  56,  -6,  70, 118, -76,-123,  82, -24,  11, -70,  87,  56, 115,  -6,
     121,   3,  31,  44,  -3,  16, -70, -35,  51,-117,  51, -50, -58,  49, -72, 117,
     125, -11, -25,-107,  71, -86, 110, 125, -96,  46,  -9,  10, -81,  57, -85,  98,
     -12,  34, 107,  60,  10, -25, -10, -40, 113, -63, -23,  71, -34,  98, -65,-119,
      33,   2, 110, -20, -93, -43, -27,  21, -57,  13, 104, -19,  38, -69,  77, -59,
      20, -51,-110, -46, -73, 100, -59, 121,  -2, -71, -28, -80,  85, -97,  95,-115,
     -51, -91,  47,   3, 112, -34,-117,  66,  20,  83, -19,  60, -84, 127, -83,  84,
     -73,  72,  92,  96,  -6, -18,  85,  20,  31, -67, -14, -33,  42, -77, -24,  89,
      12, 101, -68, -15,   0, -25,  47, -89,   5, -92,  33,  84,-122, -11,  -2,  56,
    -108, -24,  73,   8,  63, -35, 107,-107,-104,   7,  -7,  35, -69, -70,  63, -53,
      58,  36,-106,  54,  96,  80,-125,  10, 105,  25, -53, -78,  47,  69, 105, 103,
     -41,  26,-101,-103,-109, 108, -88,  -4, -17, -45,  10,-126, -30,  -5,  77,  51,
      89, -31, -91, -25, 118, -73, -83, 113, 114, -89,  68, -18,  -2,   0, 119, -80,
      69,-126,  33,  39,  64, 108,  64,  59, -63, 125,  -8, -21,   0, -27,  24, -38,
     -66, 109, 109,  -1, 117, -21, -29, 106,  34,  67, -22, -24,-106, 119, -69,  -1,
     -98,  37, -28,  68,   7, -94,-124, -73,  57,  83, -40,   9, -66,  97, 118,  64,
    -104, -16, 125, -69,  43, 111,  69,  28,   2, 109, -27, 102, -18,  65, 106,  13,
     -48,-114,  79,  31, -60,  96, 107,  98,  26, 121,  95,-101, 122,  12, 107,  66,
      37, -44,-120, -57,  47,  92,-126, -74,  44, -55, -91,-106,  35,  24,  91, -47,
     -92,  76, 124, -35,  93,  67, 105, -19,-101, -97,  67,  92, -11,-112,-110,  25,
     106, -26,  38,  11,  99,  84, -76,  45,  88, 109,  23, -82,  15,  42, -58, 120,
     -69, 104, -19,-127,  11,  33,  94,  10,-103, 108,  17, -58, 101, -96,-102,   9,
      32,   3, 109, -60, 125,-122, -97, -80,-107, -16,  93,  81,  62,-125,  93, -26,
      59,  58, -82,   4, 108, -60,  55, 116, -35, -29, -12,  78, -15,  -3, -71, 124,
     100,  25, 117,  47, 117, -86, -70,  98, -20, -33,  65,  33, -40, -26, -23, -95,
     -69,  10,  72, -21, -30,  38, -87, -30, -74,  39, -98, -13,  24,  85,  57, 112,
      46, -38, -68,-113, -56, -92, -33,  51,  49, -46,   2, -72,   1,   3, -50, -61,
     122,   9,  16,-125, -81, -36, 118, -82, -50, 125,  -5, -46,  34,  -1, 116,-106,
      74, -56,  78,  88,  89,  93,  55, -91,-114, -40,  -1, -50,  62,  57, 120, -25,
      73,  61, 124,  69, -55,-123, 119,  55,  79,  74,  60,  64, 109, 105, -31,-119,
    -117, -14,  85,  88, -24, -50,   2,  84,  35, -91, -35,  14,  10,  84, 110,-101,
     -70, -27, -52, -23,-117,-110,  86,-101,  82, -49, -48,-101,-124, -37,  85, 107,
    -111,-119, -87,  68, -75, -68,  99,  95,  43, -85, -30, -67,  44,  71, -91, 101,
      -9,  75,-114, -35,-123,  55,-107, -41,  72,  63,  36,  49,  38,  36, -38,-120,
     -15,-115,  -8,  -9, -82,  72,  52,  15, 108, -54, -60, -80,  11, -75,  94, -50,
      -2,   7, -49,  61,  49,  66,  27, -10, -13,  55, -31, -16, -85,  46,-107, 125,
     -90, -30, -67, -53, -45,  55, -82, -60,-101, -43, 112, -30,  70, -10, -13,  82,
    -120,  93,  -4, -38, 103, -41, 121, 111, -59, -40,  79, -77,  59, -94, -75,   0,
      62,  61,  28, -58, -21, -64, -57, -45,  25, -74,-116,  49,-121, 120, -38,-125,
      98,  25,  81, -17, -37,  39, -24,  14, -56, -43,-106,  71, -38, 121, -61,  -6,
     -49,  49,  78,  -3, -34,  62, -78,  25,  59, -59,  40,  60, -97, -45, -24,  70,
      17, -13, -46,-126,-122, -66, -97, -97,  26,  27,-116,  24, -90, -31, 124,   6,
    -118, -39,  43, -70, 118, -19,-122,  10,  45, -11, 109, 102, -92,-107, -48,  27,
      26, -58, 115, -49,  77,  84,-102, -68, -72, 107, -38,  85,  -6, -11, 102, -15,
      62, -19,-101,-114, -74,  56, -32, -12,-101,  31,  77,  32, 123,-123,-123,   0,
     -59,  47,  74,-101, 106,-119,  48, -29,  43,-102, 111, 111,   5,   2,  34,  20,
      11,  23,  91,  28, -77, 105, -72, -85, 126, -73,-102,  16,  83,-112,  -3,-110,
     -18, -40, -92, 109,  34,  87, 103, 109,  63, -49,  84,   5, -58, -29, -50,  -9,
      71,  -4, -59,-105,  90, -21, -15,  67,  89,   3,  34, -66, 111,  17,  56, -98,
      35, -33, -13,  46,  75, -38,  95, -71,  16, -89, -54, 100,-124, 106, -44,  50,
    -104,  36, 104,  14, -35,  75,  54, -97,  42,  42,  64, -47, -25, 117,  19,   2,
     124, -69, -26,  66,  54, 119,  39, -47, -26,-104, 108, -94,  12, -25, -93, -53,
      34,-119, 118, 104,-106,  94, -44,-110, -49,  78,  42, -66,  56,  53,  62,  10,
      81,  36, -95,  79, -45,  52,  44, -42, -86,  50,  89,  86,  32, -69, -47,  65,
     -23,  59, -48,-125,  26,  26,  32, -59,  79,  -3,  67,  28, -21,  46,  19,   3,
      38,-105, 104, -42, -70,  69, -68, 126, -20, -52,-111,-116,-103,-126, -44, -48,
     -18, -68,-111,-109, -81, -47, -89, -34, 107, -61, -84,  42,  -2,-115,  73,  55,
     121, 111,  21,  47, -23,  99,  13, -44,-125,  22,   6,  79, -80,  80,-123,  22,
     -26, -43, -17, -70, -80,  77, -69,  60,  54,-119,  97,  73,  75,  79,  21, 125,
     -81,-109,  52, -52,  27, -28, -42, 100, -91, -79,  43,  72,  84, -68,  97,  28,
      82,-110, -36,   6,  20,-102,  10,  42, -35,   0, -53,  94,  25,  13, 113,  42,
     -56,  36, 117,-121,  32, -87,  80,  36, 111,  43,-123,   3, 103, -68,-106,  56,
       1,-115, -56, -44,  43,  -7,  -3,  78, -56,  44, -34, -21,  14,  50, 113, -59,
    -101, -18,  12, -69,  99,  76,  -2, -13,-117,   9,  24,  99,   0, -87, -81, -86,
     111,  75,  82,  86,-103,  51,  52, -70,  -2,  41, 101, -99, 100, 107, 108,-126,
     -71,  49, -45,-111,  67,-120, -14, 114, -15, 105, -23, -39,-100, -36, -41,  88,
     107,-121,-102,  36,  -4, -52, -61, -70,   6,-123,  61, -51, -19,   7, -73,  97,
